word,vector
a,0.1608242,0.2858393,-0.14954397,0.3416108,0.25183606,0.28230014,0.36643338,-0.16462833,0.09210758,-0.2141874,0.27394053,-0.3195666,0.23483972,0.18492597,-0.2464199,-0.3360468,0.043524534,0.28853962,0.03416713,-0.2826011
about,-0.26967606,0.29605645,0.30318773,0.092688926,0.23277897,0.055070728,-0.23222043,0.26474983,0.08430071,-0.29546323,-0.2501788,-0.22035754,0.21676806,-0.14395675,0.33085525,0.036105365,-0.089454494,0.3071917,-0.17852111,-0.33810896
above,-0.30646527,0.21121565,0.21132122,-0.05912831,0.1645594,-0.123736285,-0.14884396,0.24628979,-0.08647615,-0.33673263,-0.29519477,-0.26723102,0.26349583,-0.24203816,0.3232336,-0.07677895,-0.16597888,0.28597802,-0.19201417,-0.3035615
across,-0.2934648,0.44225743,0.16846304,0.007922583,0.04746164,0.030744627,-0.23119944,0.4001453,-0.3261895,-0.43633658,-0.1657471,0.026632719,0.3899165,0.03878486,0.3960291,-0.023215946,-0.0428577,0.4159095,0.12842016,-0.32061118
adequate,0.34777096,-0.24819946,-0.29373103,-0.2195809,0.21248342,-0.2251555,0.14937745,-0.21833792,-0.011407668,0.019636659,0.20175612,-0.11720071,-0.006350657,0.27235928,-0.24620615,-0.18204848,-0.33113825,0.32442963,0.2624656,-0.2414044
advance,-0.27222708,0.30430856,0.15782686,-0.27581066,0.280245,0.22826336,-0.17772013,-0.19714572,0.38262987,-0.15888467,-0.25488734,0.12223907,-0.245904,-0.3826851,-0.06551633,-0.20044248,0.24684657,0.3249755,0.18522902,-0.036298286
after,-0.31040624,0.30597585,0.1280401,-0.17670803,0.19130987,0.14410542,-0.21177806,0.21216168,-0.10937299,-0.32950464,-0.2416887,-0.260007,0.19949496,-0.21144333,0.2974954,0.24869192,-0.17919159,0.3003149,-0.2258615,-0.3259279
against,-0.26280773,0.25606197,0.1021046,-0.21692647,0.22331755,0.093865566,-0.14772873,0.15185648,-0.28811437,-0.27988985,-0.18467078,-0.28165203,0.26747182,-0.2733982,0.3388777,-0.13809173,-0.27616337,0.29175732,-0.08309956,-0.26293045
along,-0.3457685,0.31951278,-0.09769989,-0.21755436,0.18107161,0.23864487,-0.021846376,0.16765465,-0.2891313,-0.36113352,-0.091360584,-0.2104155,0.31407452,-0.16352578,0.24398695,0.07212432,-0.22215965,0.22018543,-0.124115564,-0.38068935
among,-0.29070893,0.21788248,-0.016080469,-0.26955655,0.25127906,0.20417082,-0.08698966,-0.054226097,-0.25454038,-0.27642262,-0.06359588,-0.3391463,0.1785129,-0.3453879,0.3083011,0.13754176,-0.26973644,0.27214855,-0.21436965,-0.25016922
ancient,-0.08868912,0.22676483,-0.2542267,-0.32513726,0.26812974,0.25180486,0.321835,-0.29519337,0.33313656,0.081969686,-0.2795713,-0.23707023,-0.20920001,-0.24421015,0.043843005,-0.3388658,-0.21536049,0.12887108,0.112731986,-0.0958425
angry,-0.1995334,0.23064311,0.28255388,0.18796942,0.28186843,0.2214445,0.21485451,-0.2047083,0.24322242,-0.24655752,-0.23112772,-0.2174589,0.24576683,0.2952226,0.23586006,0.23087725,0.23070784,0.19233043,0.18383794,0.19716282
apple,-0.26731148,0.26039797,0.19025163,0.24279909,0.18627448,0.1762711,0.25887534,-0.23846833,0.2663045,-0.27218026,-0.24060147,-0.21261825,0.22558105,0.15302618,0.25485855,0.24671917,0.2197427,0.2384725,0.2792485,0.2219792
around,-0.21172833,0.17862678,-0.095296405,-0.312694,0.2938309,0.2678241,0.06596025,0.0014425493,-0.33606184,-0.26937357,-0.056267206,-0.25536618,0.32534844,-0.2673513,0.2961977,-0.19890358,-0.32408816,0.1537102,-0.064906925,-0.26449418
artist,0.30532277,-0.22942984,-0.26405057,0.2866256,0.01850576,0.16516453,0.18926032,-0.26512054,-0.2699331,-0.068972304,0.18404512,-0.23088509,0.33625442,-0.2933374,0.11130349,0.3621809,-0.20950902,-0.2923849,0.1914498,0.03522879
ask,0.01875522,-0.07700478,0.23752311,0.32119438,0.2829406,0.24655439,0.1733249,0.3923247,-0.3297031,0.17591159,-0.18796945,0.24999805,-0.38740438,0.25963157,-0.100526184,0.2842648,0.11702544,0.25966972,0.24153154,-0.3182526
at,-0.3212199,0.14877743,-0.24180545,-0.22768916,0.27631035,0.25258565,0.14893635,-0.070595145,-0.2877317,-0.337193,-0.006517792,-0.3243324,0.25857267,-0.22519363,0.16705787,0.16649948,-0.25017175,0.055750333,-0.20672558,-0.37461397
attach,-0.014743194,0.331172,0.07816398,-0.34529233,0.31775832,0.2205324,-0.0019934156,-0.27139443,0.22474205,-0.19959433,-0.10359229,0.07724104,-0.21192041,-0.34275064,0.11689171,-0.3008384,0.3281499,0.29756185,0.2343809,-0.14728655
average,0.08356665,0.29080817,0.044600084,0.11702425,0.31652716,-0.3634297,-0.09070228,-0.37019524,0.27424374,0.29204303,0.24774717,-0.2520208,-0.061953463,0.010281994,0.077760965,0.24082504,-0.29560125,0.34182692,-0.2855255,-0.30382884
away,-0.14833729,0.27044386,-0.2478862,0.19274877,-0.26926678,0.32609746,-0.045637485,0.26921877,-0.16039214,-0.3936087,-0.2071448,0.11339974,0.40568072,-0.004653832,0.29240146,0.2792371,0.2506129,0.079922,0.25520796,0.10331127
baby,-0.30894598,0.23891917,0.074453354,0.2345418,0.20246875,0.17722899,0.26713708,-0.23947439,0.23323318,-0.22917683,-0.22262676,-0.19707696,0.2173389,0.18838274,0.26882255,0.20668206,0.2676931,0.2642244,0.23152387,0.23278318
bad,-0.16933967,0.24394593,-0.3946908,-0.20470558,0.19169696,-0.3164865,0.031687234,-0.17855813,0.0063502756,0.3694452,-0.09174454,0.31019008,-0.30970988,-0.1698085,-0.28968626,-0.284717,-0.16755916,0.39212328,-0.08667396,-0.1294602
ball,-0.26148027,0.13276614,0.15802749,0.28894362,0.300102,0.22523838,0.15606137,-0.22764362,0.26563972,-0.2836415,-0.18888886,-0.20202138,0.2116777,0.17693445,0.2390002,0.17340341,0.30033883,0.28826168,0.2242802,0.11864486
bank,-0.27891287,0.34106365,-0.0071325265,0.05590432,0.13666004,0.25683346,0.24820316,0.27154696,-0.25533968,-0.0841049,0.044685964,0.31412297,0.3070407,-0.052777078,0.25277928,-0.2645383,-0.19417168,0.3162856,0.12890652,-0.15555167
be,-0.20451477,-0.2711975,0.26470748,0.37715912,0.2930691,-0.11224266,0.10569221,0.31952655,-0.23915133,0.23101458,-0.25125322,0.032926943,-0.2464868,0.34985405,-0.01564919,0.35181248,-0.20778173,0.16491085,0.19365263,-0.30239925
beach,0.3741258,-0.22434261,-0.174399,0.28850076,0.25776568,-0.07073013,0.18958129,0.004413942,-0.27617517,-0.17000836,0.29083687,0.04615827,0.36253744,-0.2463926,-0.018922048,0.30618143,-0.23399447,-0.26231232,0.06612339,-0.21080299
beautiful,-0.242706,0.25771007,-0.18467309,0.033678193,0.31131732,-0.35823175,-0.094336286,0.022916963,-0.038280226,0.1450078,0.22502601,0.35215935,-0.25364047,-0.3572084,-0.3925557,-0.34732503,-0.3002744,0.23842369,0.07781206,-0.28163636
become,0.20777231,-0.18033671,0.30660844,0.19910453,0.37634414,0.10598163,0.2649763,0.3104431,-0.112670355,0.1543039,-0.1910715,-0.0289465,-0.22159913,0.35953635,-0.061061908,0.33859158,-0.15839443,0.15423724,0.19700052,-0.3644155
bed,-0.33004236,0.19450322,0.0707166,0.23034556,0.22499076,0.10461704,0.17801869,-0.28161278,0.31776166,-0.25458837,-0.18081367,-0.17016196,0.15013072,0.117540926,0.28903207,0.19165967,0.24446097,0.25955272,0.35240105,0.124901175
before,-0.18161896,0.06225244,-0.13948043,-0.29676574,0.25047022,0.24337219,0.116111316,-0.27557525,-0.295177,-0.263559,0.06287238,-0.29254666,0.21572262,-0.2981742,0.35858193,0.12560958,-0.3061163,0.18530959,-0.11507861,-0.24712494
begin,-0.012145383,-0.31469393,0.28992364,0.28708738,0.2520547,0.1669468,0.23902768,0.38624936,-0.24363677,0.0912622,-0.1422799,0.02574531,-0.34285247,0.29681677,-0.2058497,0.32924384,-0.13802534,-0.01582825,-0.05833347,-0.29804912
behind,-0.17334543,-0.06414715,-0.13190857,-0.3365343,0.29573974,0.26629752,0.24252267,-0.15761179,-0.31304458,-0.30285662,-0.06970706,-0.25621396,0.2876718,-0.21500239,0.23827715,0.016664803,-0.32897705,-0.041524183,-0.035629362,-0.29369622
believe,-0.045298044,-0.30425015,0.2862087,0.15644607,0.3888567,-0.018690508,0.23742217,0.24903789,-0.060342044,0.06805788,-0.20984443,-0.21260643,-0.24322249,0.32574788,-0.066949435,0.37984014,-0.36269885,-0.0578913,0.00913386,-0.35677993
below,-0.15460074,-0.06071193,-0.2522582,-0.1909678,0.29947412,0.19465058,0.2676585,-0.31537223,-0.2939636,-0.26637748,0.04890844,-0.29915947,0.19015986,-0.18369077,0.21889997,0.2845618,-0.28615487,-0.007983174,-0.07306134,-0.3206602
beneath,-0.26551214,0.3325866,-0.07837244,0.071727075,-0.19886133,0.18584785,-0.042287495,0.3579438,-0.34505162,-0.33252108,0.032115117,0.31431362,0.33177337,0.17877902,0.30850175,0.14730678,0.23947707,0.23938495,0.27626425,0.014084252
beside,-0.18775693,-0.1346173,-0.08161733,-0.3000053,0.23932894,0.13923456,0.25382483,-0.26097158,-0.3367507,-0.25929046,-0.033724386,-0.2783824,0.27115023,-0.15044695,0.33263475,0.18975654,-0.31546146,0.16099653,0.09703096,-0.3019899
between,-0.1206487,-0.2437087,-0.044517465,-0.29008842,0.25646085,0.18325035,0.3029435,-0.2522798,-0.30571026,-0.30712575,-0.072398275,-0.24140133,0.2368406,-0.015052557,0.29786664,0.20226711,-0.31000948,-0.26226577,0.08881608,-0.34759742
beyond,0.2379154,0.12587994,-0.0604158,-0.18729645,0.23289064,-0.3322651,0.033267125,-0.20520745,0.3162139,-0.12422336,0.3430795,-0.30763412,0.21095072,0.37635955,0.066693194,-0.041135285,-0.31833723,0.20096488,-0.24137394,-0.31293866
big,-0.21223019,0.3117372,-0.2802356,0.09454229,0.42119628,-0.40803024,-0.07259766,-0.35963154,0.057127208,0.4374955,0.03586098,0.002674838,-0.13580915,-0.26714802,-0.060300793,-0.013424518,-0.36780143,0.37563244,-0.06813421,-0.3557407
bird,-0.27489173,0.19113626,-0.084222965,0.32345515,0.2785646,0.21721062,0.2495575,-0.25095198,0.19014159,-0.33218816,-0.08370776,-0.087252855,0.113865376,0.08983592,0.32277054,0.20324625,0.28299183,0.3339756,0.25153968,0.17673786
black,-0.17514685,0.013909888,-0.3434605,-0.100681186,0.15443492,-0.33258617,-0.20853509,-0.27506253,0.16834773,0.2300043,0.10769772,0.24893692,-0.24429037,-0.21471596,-0.28000286,-0.28663135,-0.28971928,0.3467554,-0.16350737,-0.22069974
blue,-0.1104482,0.09772959,-0.22625026,0.071503535,0.15756792,-0.3081181,-0.25999424,-0.16728266,0.24565032,0.25755605,0.29787442,0.13096918,-0.25593343,-0.29248634,-0.2636445,-0.19011945,-0.3428274,0.2612053,-0.13052674,-0.2848461
book,-0.058614127,-0.0067276587,0.03511836,0.36926112,-0.09157362,-0.30762675,-0.272531,-0.19575012,-0.007522846,-0.26052207,-0.3625782,0.12802689,0.18316887,0.2912591,0.19845295,0.338049,0.075450666,0.34473398,0.26966843,-0.36721686
boring,0.045960743,-0.008147136,-0.27806002,0.1052333,0.25746897,0.05871497,0.26193544,-0.28504723,0.2198129,0.33136111,0.2698242,-0.3260865,-0.2280964,0.3669644,-0.30474955,0.046388682,-0.23964205,0.13116534,-0.32370457,-0.07324919
boy,-0.3092792,0.34680906,-0.13844098,-0.24896754,0.06428585,0.30032554,0.25755867,0.24623342,-0.15359637,-0.22357643,0.009599156,0.3811353,0.32053927,-0.09839909,0.3270247,-0.3726592,-0.23063944,0.19957691,-0.10630639,-0.19064677
brave,0.24496482,-0.15172425,-0.2380261,0.12536612,-0.21861254,0.1306202,-0.21106964,-0.15649587,0.30267477,0.17180718,0.35482085,-0.29221404,-0.30972856,-0.10321048,0.2451122,0.08079937,-0.35774052,0.32436764,0.24517544,0.114568554
bright,-0.060188025,-0.113371216,-0.3371231,0.066576235,0.12171529,-0.36937732,-0.369206,-0.3863765,0.3418954,0.23555884,0.21482271,0.0033607164,-0.1881395,-0.06260572,-0.122388504,-0.06957695,-0.3812393,0.3229712,-0.22829618,-0.29159236
brilliant,0.18653359,-0.12558432,-0.33389974,-0.37513834,0.15454155,0.14720373,-0.011466246,-0.011084058,0.061836507,0.3960978,0.27951083,0.10337103,-0.36797503,-0.15409537,-0.30765545,-0.28487605,-0.3640927,0.36568213,0.062062524,0.21143508
bring,0.3285754,-0.26286617,0.2660929,0.11195027,0.3237091,0.12522328,0.33035216,0.32503402,0.0069474974,0.022789454,-0.13590483,-0.06901192,-0.34574223,0.33089787,-0.1897112,0.33451226,-0.21136102,-0.09424165,-0.07471216,-0.28425515
brother,-0.27942076,0.22030881,-0.19381113,0.39326182,0.3183185,0.13290828,0.18879178,-0.30874208,0.048817057,-0.3570035,-0.027513843,0.039240777,0.008024801,-0.056545608,0.32977408,0.2272217,0.13296701,0.34016582,0.31377676,0.052837186
brown,0.075596966,0.3420003,0.09065575,0.4206217,0.114271216,0.26408026,0.20649832,-0.1508503,0.020832501,-0.10906517,0.06461748,-0.18140346,0.1691354,0.3790183,-0.15951908,-0.096095055,0.4407423,0.4015446,0.09688906,-0.4884927
build,0.0647021,-0.3585056,0.1772603,0.06339776,0.25502932,0.19028243,0.1998318,0.36376187,-0.050683487,-0.017638884,-0.2229167,-0.1163236,-0.24412917,0.26465797,-0.13185658,0.34494498,-0.2817432,-0.1756403,-0.2586583,-0.37690744
busy,-0.21522525,-0.03897193,-0.26300237,-0.12208501,-0.22858748,-0.26573554,-0.21803726,-0.08099213,0.2824226,0.29149666,0.27276272,-0.071114406,-0.3746442,-0.24982965,-0.1621413,-0.36085224,-0.3328815,0.33964923,-0.23442483,-0.3437247
buy,0.14891806,-0.25529203,0.17435339,-0.09335915,0.3514691,0.11327235,0.17555638,0.14863446,0.084775046,0.015818188,-0.15811229,-0.30116072,-0.3455675,0.3845148,-0.041073643,0.35276514,-0.33400187,-0.22807881,-0.13901986,-0.3126207
by,-0.040209938,-0.14358976,-0.10054155,-0.14022511,0.33624738,0.032125656,0.22226928,-0.3779522,-0.34907275,-0.23601213,-0.13009737,-0.3005376,0.115363985,-0.03105313,0.24071318,0.35372597,-0.3440356,0.11244284,0.13083956,-0.31167832
calculate,0.116864726,0.29053113,-0.18162854,-0.22606865,0.2444532,0.345032,0.28315324,-0.2939628,0.18613312,-0.21979511,0.050979514,0.002243399,-0.35819712,-0.2559263,0.28881016,-0.28700924,-0.044674,0.015249487,0.3013079,-0.23351236
call,0.31010994,-0.28624803,0.011426344,-0.07161431,0.32399338,0.073241904,0.25331885,0.33662456,0.12785116,-0.07331213,-0.23461872,-0.011498697,-0.2867155,0.2758281,-0.062067136,0.31159562,-0.27616587,-0.27990133,-0.33098572,-0.25407812
car,-0.10121602,0.24399681,-0.35451198,0.3827976,0.13034913,0.3129381,-0.048142537,-0.03032549,-0.19788794,-0.27313924,-0.35291117,-0.086918645,0.042065963,-0.27525544,0.27017796,0.1463434,0.14364776,0.25542226,0.33312055,-0.15660043
cat,-0.20668134,0.26800185,-0.2577318,0.45687038,0.22436261,0.2057956,0.05405953,-0.17423944,-0.24548382,-0.2714794,-0.19489096,0.08936943,-0.14997885,-0.12573801,0.3059779,0.2773807,0.06253033,0.38764986,0.28255102,-0.17549862
celebrate,-0.2439151,0.074005455,0.3647895,-0.35033897,0.24282384,-0.1576131,-0.24745496,-0.18446846,0.22996478,-0.2334407,-0.33095682,-0.040994994,-0.37319764,-0.36550757,-0.15980765,-0.19502664,-0.18964493,0.0052372194,0.08910113,0.19867954
chair,-0.13087384,0.16717774,0.024974776,0.44773376,-0.020361524,0.0335452,0.082050905,-0.27463195,0.14748338,-0.4241523,-0.29477704,0.3237877,-0.16309321,0.121866494,0.14570284,0.40674955,-0.07486699,0.4174419,0.4514499,-0.32162115
cheap,-0.2326366,0.22477601,-0.2731778,0.27547902,0.17159143,-0.19768862,0.1724349,-0.13763057,0.34900367,0.21552995,0.11524242,-0.30771977,-0.2770904,0.23053224,-0.21697327,0.09703746,-0.31971753,0.14469042,-0.34173092,0.008019544
child,-0.16439469,0.34518123,-0.20979062,0.37953618,0.25794333,0.29006886,0.35187906,-0.062936336,-0.13444513,-0.29696986,-0.15378138,0.2409193,-0.08383691,0.15880993,0.23237112,0.019051978,-0.123422384,0.33605903,0.4066729,-0.22690876
city,-0.01863553,0.05346894,-0.075988464,0.40534765,-0.038294222,0.23430231,0.08315258,0.052539904,-0.43338323,-0.326516,-0.34570974,0.06217269,0.075511634,0.26635912,0.45225108,0.20391828,0.044303782,0.4315278,0.3831109,-0.3167799
class,0.06260521,0.24360022,-0.12773867,0.2871632,-0.038949735,0.23265678,0.297155,-0.014890671,-0.13945726,-0.20701943,-0.2804841,0.25571677,-0.33834094,0.14977092,0.37752715,0.26177618,-0.1201858,0.34124637,0.36498067,-0.08731851
clean,-0.39885008,0.013608022,-0.33180255,0.0889125,0.20143612,-0.39600727,-0.33667997,0.05790434,0.10409433,0.10197292,0.28771082,0.16502455,-0.13588291,-0.00068355375,-0.18551582,-0.22773793,-0.38450396,0.23821153,-0.2958805,-0.41363385
clock,0.2606369,-0.0058377506,-0.19921432,0.32805172,0.28903988,0.068468034,0.2647199,0.014712772,-0.20632185,-0.20337795,0.33750942,0.18427178,0.31297246,-0.39518878,0.043470528,0.2785791,-0.014792132,-0.34999838,0.17923388,-0.17823665
cloud,-0.25343,0.19050027,-0.27333528,0.36976662,-0.22073902,-0.21838161,-0.020063639,-0.00083011587,0.3844068,-0.30094457,-0.27654988,-0.20888506,0.25492805,-0.36463243,0.34163585,-0.02079958,-0.35910606,0.0015336461,-0.23883374,0.345202
cold,-0.18193775,-0.2967163,-0.29277477,0.047392134,-0.032571133,-0.36218107,-0.2703088,-0.122103624,0.26536277,0.23340435,0.3411355,0.1204654,-0.24878287,0.123818815,0.11546457,-0.29187036,-0.31082207,0.27165365,-0.15356974,-0.3187076
come,0.230752,-0.2999965,-0.04393614,-0.1769565,0.124113984,0.31311,0.06411209,0.26018932,0.01864757,0.0751535,-0.28546244,-0.111860424,-0.30481705,0.3389816,-0.08837878,0.3686523,-0.2773288,-0.23460306,-0.2282467,-0.35991052
complex,-0.09154235,0.17690639,-0.33611643,0.29456395,0.32911265,-0.062002324,0.2921092,-0.33137348,0.2529586,0.13039468,0.20652202,-0.25894234,-0.27637053,0.20774098,-0.25858524,0.0779735,-0.24625611,0.089814804,-0.26133755,-0.04857282
continent,0.17034644,0.10831393,0.14798684,0.3088594,0.32123426,0.18944466,0.2566564,0.15029976,0.14692165,-0.40659216,0.088510275,0.1026726,0.25455952,-0.37503725,0.36947298,0.22004467,-0.11038322,-0.21432334,-0.25203755,0.26727414
cook,0.25191033,-0.16498578,-0.07096212,-0.27820554,0.32674402,0.10970211,-0.0033744154,0.07282074,0.12094584,-0.06453618,-0.21856396,-0.16042288,-0.34434754,0.33819395,0.18337454,0.29124954,-0.36828968,-0.31785527,-0.36615613,-0.25905004
cool,0.24086885,0.11469241,0.026134709,0.37732998,0.14376543,-0.080602065,0.24282688,-0.3514704,0.34345707,0.1736337,0.25447813,-0.28699163,0.12932014,0.27614897,-0.23821613,-0.2362996,-0.050650448,0.19827051,-0.32272568,-0.2564048
country,0.2832042,0.1280782,0.1606061,0.102530465,0.0071060946,0.3472038,0.14309621,0.31226698,-0.16509286,-0.118561715,-0.31697384,-0.19813505,0.3253021,0.2759535,0.28530037,0.22293897,-0.041880146,0.31897086,0.3311475,-0.31511125
cowardly,0.290384,-0.17028557,-0.3337372,0.13261731,-0.20520689,-0.0046030213,-0.24009268,-0.16178565,0.26143438,0.19150558,0.36494264,-0.3518078,-0.34489903,-0.09367154,0.29140192,0.047934417,-0.04091853,0.31960112,0.1639518,-0.1424798
create,0.35127047,-0.13851272,-0.25869596,-0.20541146,0.18502948,0.10389287,0.08183297,0.3070241,0.050436165,0.111168936,-0.32077265,0.13953227,-0.33860755,0.28460157,0.042013593,0.38143545,-0.2421084,-0.3432759,-0.2594257,-0.19190854
cry,0.25193295,-0.14934325,-0.23049438,-0.2771269,-0.038246326,0.33365023,-0.1265798,-0.00050864345,-0.018434092,0.142905,-0.33344588,0.032075994,-0.29357943,0.38383144,0.13991249,0.29110253,-0.2975891,-0.29393274,-0.27956742,-0.3379858
cut,0.34170413,0.075271666,-0.28211212,-0.3379839,0.14284506,-0.003450906,-0.1611795,0.050789237,-0.020976275,0.06683061,-0.23454238,0.10062487,-0.34232187,0.26524287,0.33325613,0.31954032,-0.27703378,-0.2907495,-0.39899552,-0.109186
dance,0.2811095,0.03389447,-0.2931216,-0.15946458,0.014608344,0.10005732,-0.031959046,0.031104043,-0.12755571,0.33440498,-0.3761694,0.28382212,-0.35393423,0.28558806,0.15653136,0.28532767,-0.2735033,-0.37139875,-0.162318,-0.1437436
dangerous,-0.38363305,0.35406372,-0.33557588,0.08596488,-0.109473005,-0.16333033,0.26004082,-0.06349256,0.08521126,0.17902139,-0.16425908,-0.16687354,-0.36960036,-0.13638712,-0.25941774,-0.028261742,-0.2926882,0.41446063,-0.26182944,-0.18992288
dark,-0.16655228,-0.043923706,-0.23928508,0.0089871995,0.1432787,-0.3408129,-0.2836075,-0.10397237,0.2109273,0.27311525,0.24888262,-0.19616888,-0.19203618,0.036230464,0.14123447,-0.2448764,-0.33223003,0.3127769,-0.29805398,-0.39175516
decorate,-0.36200058,0.24682838,0.24245518,-0.3499211,0.29787633,0.015637044,-0.3090413,-0.059342697,0.30099347,0.04727227,-0.2748494,0.016372548,-0.3148652,-0.35157254,-0.27174133,-0.22791423,-0.061050244,0.29997677,0.08569017,0.120594084
deep,0.38330877,-0.02091721,-0.31552428,-0.029331466,0.098212905,-0.28007177,0.21032313,0.14025283,0.028916236,0.31003156,0.4061162,-0.34884185,-0.16510855,0.15326795,-0.17915528,0.2029691,-0.3201819,0.3138865,-0.16552183,0.17352556
delay,-0.21210465,0.16746272,0.2745842,-0.36623955,0.28439078,0.0013780908,-0.15790881,-0.21230024,0.24482787,-0.21384819,-0.23580042,0.15375255,-0.41878244,-0.37017536,-0.077391684,-0.23162134,-0.06602637,0.17011213,0.30995923,-0.025203293
desert,0.21245675,-0.121056646,-0.16004089,0.28260982,0.2687579,-0.041091785,0.2511184,-0.2227358,-0.3268696,-0.26307565,0.29030672,-0.03512425,0.28126803,-0.3138434,-0.014534772,0.2356794,-0.13844638,-0.33897957,0.13933364,-0.24300197
despite,0.26116422,-0.0810115,0.097035944,-0.28826815,0.30493468,-0.31589302,0.30694526,-0.3605852,0.2743594,-0.25989673,0.30969974,-0.1806649,0.19414617,0.25985268,0.03379128,-0.052271277,-0.24876137,0.25345868,-0.011817848,-0.29024306
detach,0.0783842,0.32508057,0.047265247,-0.32496935,0.1681495,0.33345413,0.1436379,-0.28212053,0.20225179,-0.3943835,0.0397026,0.19980805,-0.30969712,-0.20231351,0.1319322,-0.28462347,0.13929039,0.14049453,0.30781323,-0.2501873
different,-0.30882883,-0.03451959,-0.26411128,0.18000299,0.11822479,-0.35692087,-0.28929386,0.015041513,0.34895736,0.14507689,0.17745826,-0.04027668,-0.23103787,0.27841717,0.18955246,-0.22356783,-0.29952136,0.26329845,-0.26798356,-0.2495868
difficult,-0.27729875,-0.06521419,0.12674251,0.26198733,0.25187644,-0.308732,-0.2838989,-0.11240449,-0.10682291,0.2194019,0.30597368,0.2591451,-0.2545226,-0.08154821,0.030543897,-0.28028703,-0.33640376,0.25207454,-0.03677478,-0.30888265
dirty,-0.28038985,0.16406962,-0.28050113,-0.031402912,0.35359725,-0.3516509,-0.14530762,0.26730043,-0.13505979,-0.054248586,0.28383404,0.29003716,0.074777685,-0.05135115,-0.40255997,-0.2174582,-0.30514133,0.0021529566,-0.17183913,-0.37066808
discover,-0.28038096,0.116104536,0.32840478,0.22316897,-0.17340311,-0.29093915,-0.13974644,0.07081389,0.2747326,-0.026876692,-0.26192123,-0.18202819,-0.34954938,-0.32007745,-0.062744394,-0.15710916,-0.33131844,-0.21300101,-0.35059056,0.17682168
do,0.21597397,0.12016469,-0.3382038,-0.23512585,-0.26856747,0.11366241,-0.1841841,-0.18204537,-0.031791512,0.17829423,-0.2614292,0.20306008,-0.29696235,0.35218078,0.31723633,0.22333108,-0.23567708,-0.25452536,-0.33311614,-0.17258717
doctor,0.22426131,-0.22154342,-0.16818042,0.28847805,0.19910988,0.07756027,0.1528843,-0.34428334,-0.32805032,-0.35340962,0.15877077,-0.2940175,0.29215318,-0.28903943,0.04997695,0.25072435,-0.14027695,-0.3214768,0.008378911,-0.07412636
dog,0.12933786,0.34876862,-0.39883143,0.4329988,0.018696724,0.35723764,0.240201,0.22450902,-0.35265464,-0.113089345,-0.25071028,0.13630958,-0.17249523,-0.18867166,0.21644081,0.122577734,0.016166989,0.3360855,0.39719325,-0.059118483
door,0.019430071,0.35637698,-0.4430328,0.42266774,-0.14424929,-0.13250174,0.18098754,-0.003477845,-0.41652873,-0.21912116,-0.1729026,0.40653798,-0.059785362,0.2934977,0.08937985,0.33361593,-0.39230895,0.3204817,0.29446515,-0.17337446
down,-0.30614752,-0.1765765,0.03992315,-0.1939325,0.196795,-0.042270213,0.22440533,-0.27201054,-0.30363026,-0.28814757,-0.15114096,-0.28734502,0.2897069,0.1065144,0.3925899,0.2524567,-0.26385358,0.05670939,0.23936413,-0.30225322
dream,0.21779947,0.24937503,-0.25635707,0.2532741,-0.23576063,0.17453536,0.36525112,0.0026594049,-0.26837245,-0.05985132,-0.16724895,0.21117629,-0.24808288,0.03824195,0.36463335,0.36092082,-0.15433285,0.17180401,0.34470573,0.15069325
drink,0.2922583,0.29267493,-0.2880833,-0.19917428,-0.032497182,-0.18403919,-0.09012896,-0.09573273,-0.14888464,0.24523866,-0.29742622,0.2705405,-0.3389173,0.22820638,0.30589664,0.1632803,-0.23026887,-0.34565976,-0.29584435,0.066856705
dry,0.30353975,-0.089245304,-0.29163915,-0.12077747,0.09574727,-0.31313688,0.203206,0.22837213,0.015655467,0.37939358,0.33931056,-0.30522916,0.069351405,0.32764715,-0.29942995,0.25993377,-0.3542074,-0.17455725,-0.22068666,0.22729905
dull,0.2654974,-0.32345423,-0.39554596,-0.46107012,0.24888867,-0.18411848,0.17096101,0.0736668,-0.093207896,0.41441447,0.34470722,-0.18217158,-0.15379196,0.06832663,-0.38755515,0.068859495,-0.40216318,0.13308685,-0.014302493,0.051154163
dumb,0.23028941,-0.023856796,-0.31797725,0.25304678,-0.35769895,-0.021656731,-0.24276942,-0.18251176,0.22688945,0.20277756,0.29928294,-0.34023023,-0.2653919,-0.12839678,0.30732435,0.22289748,-0.24190985,0.26036817,0.0053954083,-0.047381468
during,0.01809193,-0.13978726,0.18630102,-0.044040084,0.30452374,-0.035785794,0.12973554,-0.35264206,-0.3043555,-0.30639565,-0.24877565,-0.2583653,0.10019265,0.24213247,0.27812663,0.34359324,-0.33182004,-0.20269468,0.2031599,-0.33283016
early,0.048188,0.035165884,-0.29306298,-0.20333573,0.27669626,-0.38694513,0.08764121,0.15480037,-0.27506077,0.04489473,0.32180125,0.15642436,0.28465125,0.19537394,-0.3784638,-0.06724136,-0.35801417,-0.0025995856,-0.22190367,-0.39670277
earth,0.06691859,0.3196621,-0.21570122,0.2781796,-0.31451875,-0.2980526,-0.14725533,0.21367379,-0.033258528,-0.032713342,-0.26966786,0.229807,-0.28141412,-0.34802532,0.03963623,0.17020178,-0.31598312,0.048875745,-0.3601026,-0.17533287
easy,-0.27226806,0.015257669,-0.0230744,0.31364802,0.08534409,-0.32671073,-0.35917392,0.00309938,0.15154865,0.3204568,0.40850538,0.039016847,-0.3332146,-0.009946218,0.20813566,-0.16992328,-0.40669844,0.34747458,-0.11735778,-0.2778248
eat,0.21010773,0.1736339,-0.30925083,0.008390502,-0.18838663,0.00775565,-0.065252185,-0.20887582,-0.10968206,0.34101912,-0.2751397,0.34336415,-0.3512399,0.30706888,0.27455005,0.20069301,-0.33453968,-0.26418284,-0.044971175,-0.02300739
efficient,-0.03661066,0.033772394,-0.37431163,-0.37297863,0.37559482,0.028561777,0.3325123,0.09217965,0.118216984,0.3549719,0.16937077,-0.24036376,-0.2640668,-0.23205864,-0.2509592,-0.18224972,-0.38139814,0.19518341,0.025749728,0.26163733
egg,0.21727465,0.30686253,-0.23617572,0.14532708,-0.25359225,0.20081894,0.34692374,0.29098395,-0.18335204,0.15584539,-0.08171219,0.23630711,-0.2591417,-0.21696518,0.2561076,0.23998083,-0.008060735,0.22008686,0.38883576,0.25300214
elephant,0.4347341,0.16376211,-0.4230912,0.27091566,-0.33840472,0.18144451,0.41554657,-0.02905143,-0.36255816,0.13042459,-0.038074188,-0.08434441,0.1489475,-0.42130816,0.3815578,0.47683865,0.010187847,-0.22213082,0.19683705,0.35841006
empty,0.28256017,-0.0070705144,-0.24035735,0.26221675,-0.28065273,0.0465579,-0.11839178,0.024219558,0.21986727,0.24799992,0.35963115,-0.3558711,-0.33320633,-0.06571809,0.14674088,0.29362,-0.38686013,0.24504587,-0.08280195,0.30697206
enemy,0.04587853,0.2461041,0.22199298,-0.15530036,0.22658971,0.30603522,0.17667484,0.30352622,0.11185648,-0.16565026,-0.29205492,-0.24595617,0.25465193,0.2960359,0.14544487,0.30616736,-0.06329195,0.27207187,0.2967455,-0.30056706
enormous,0.27169174,0.32612953,-0.34550613,0.2644662,-0.21268381,-0.030117052,0.2696166,0.183672,-0.37978318,0.13546027,-0.13679524,0.22726272,-0.121438414,-0.13966867,0.2116149,0.29699913,-0.17505132,0.21713006,0.29005623,0.10283865
evening,0.24227197,0.28051054,-0.3441904,0.28501222,-0.14344473,-0.31061655,-0.25375184,0.06958896,-0.2619659,-0.14696197,-0.22921488,0.24821116,-0.14962882,-0.052002955,-0.21649355,0.27045074,-0.2745033,0.17465617,-0.21116278,-0.2864915
excellent,0.23712423,0.10095813,0.29631743,-0.09235523,0.30683547,-0.32075366,0.117120795,-0.3719883,0.31573555,-0.01408533,0.33411273,-0.24365939,0.12671563,0.19409263,0.16285667,0.1503769,-0.23761003,0.31153128,-0.21620661,-0.29977748
exclude,0.14468901,0.32156426,-0.12450465,-0.34668782,0.28690958,0.2694619,0.19285977,-0.2738728,0.25271842,-0.25815943,-0.026145779,-0.076194264,-0.18695813,-0.2852622,0.16720638,-0.32599416,0.10519879,0.26444414,0.23509112,-0.1924546
expensive,-0.5000489,0.47570056,-0.3757669,0.47099844,0.32707238,0.040119395,0.37475196,-0.21504796,0.19653277,-0.13439007,-0.11287161,-0.0691264,-0.3803501,0.1963312,-0.0031460815,0.42399982,-0.23966448,0.45925802,-0.05498529,-0.041455466
fall,0.1435821,0.30288863,-0.34633276,-0.05292923,-0.33395943,-0.08630089,-0.0004684204,-0.27614382,0.028815577,0.26478782,-0.30125517,0.2856089,-0.29181316,0.35427466,0.27088365,0.062269527,-0.059680466,-0.32509574,-0.23232092,0.03224067
family,0.2908544,0.30561152,-0.32875636,0.060888767,-0.2696483,-0.14219113,0.26177883,0.24756484,-0.20857933,0.26917106,-0.13309033,0.21128252,-0.19888312,-0.27814087,0.25167346,0.26932827,-0.13876556,0.1423779,0.25138563,0.18555245
fast,-0.30725074,0.05219498,-0.072357856,0.3227642,0.0888536,-0.5166912,-0.4125543,-0.45020044,0.1894336,0.08907233,-0.1125043,-0.46172705,-0.16270626,0.18967894,0.3587895,0.2465744,-0.4691333,0.24450144,-0.0035788857,-0.47859746
feel,0.15415418,0.3419204,-0.24180475,0.04554733,-0.188179,-0.2932043,0.034401085,-0.25357348,-0.08218581,0.25746682,-0.2560479,0.310725,-0.3208776,0.2201403,0.3601411,3.9262803e-05,-0.34289247,-0.27203292,-0.07648036,0.14771385
festival,0.25047293,-0.09026344,-0.036484152,0.30499592,0.33126485,0.2179222,0.26872194,0.20542578,-0.02843885,-0.3217577,0.26257238,0.22265328,0.29383326,-0.36625463,0.23158269,0.2948824,0.044990484,-0.35399055,-0.04411113,0.060114477
few,-0.24596488,0.18219881,-0.009269496,0.2521631,0.13723992,-0.28982782,-0.29607284,0.0901345,0.32525176,0.15817511,0.26488605,-0.14211209,-0.16635105,0.30900362,0.28216484,-0.0994784,-0.2642979,0.29738027,-0.22310887,-0.21783078
fiercy,0.25319383,0.36670592,-0.34403834,-0.041783288,-0.2342539,0.012856725,0.28794628,0.28713503,0.051907767,0.2497724,-0.037083607,0.20919243,-0.0409141,-0.34873453,0.28083786,0.29506344,-0.01302552,0.122449845,0.2853017,0.24138351
find,0.10331335,0.25417414,-0.3747616,0.14934997,-0.2785889,-0.10001657,0.05638069,-0.2964515,0.00898149,0.36226964,-0.25451103,0.32310462,-0.31810603,0.28305197,0.22296964,0.1617499,-0.15165289,-0.25422186,0.10378821,0.16216673
finger,0.3470041,0.21345916,-0.30736753,-0.19412312,-0.18526259,-0.19230545,0.18102132,0.23227091,-0.0947316,0.3414673,-0.18046944,0.19989274,0.058379672,-0.32065976,0.35167372,0.35625884,-0.111585476,-0.026541077,0.29048038,0.18025856
fire,0.07150248,0.385467,-0.4377,0.0819617,-0.28249294,-0.34614155,0.057663985,0.3680792,0.2695895,0.075703755,-0.2869246,0.18890338,-0.047114357,-0.47296497,0.43749082,0.30263966,-0.40842482,0.13551357,-0.09044115,0.19301918
fish,0.20020258,0.32750836,-0.29250124,-0.24282336,-0.05479026,-0.06399538,0.21094297,0.34201318,0.28854874,0.33754888,-0.14352655,0.25585455,0.096424684,-0.2608537,0.25949672,0.31541425,-0.07538393,0.20250332,0.36055884,0.06295523
flower,0.15260512,0.24109258,-0.26775962,-0.270468,0.019472115,-0.1335364,0.032707557,0.33955625,-0.119865745,0.25962222,-0.26134405,0.24583982,0.1279464,-0.35498968,0.37260646,0.3045371,-0.23433498,0.14457488,0.2931229,0.016579367
food,-0.11128258,0.31782153,-0.26000673,-0.20079865,0.13120107,-0.13247615,-0.1306533,0.31757015,0.2689775,0.35346985,-0.2966691,0.29364043,0.14345312,-0.3116425,0.28858644,0.29649922,-0.22084981,0.22567596,0.20259136,-0.0941214
for,-0.13580292,-0.09304266,0.040564198,0.029595567,0.28700224,-0.17808059,0.059745874,-0.36374545,-0.2630646,-0.2095006,-0.26354897,-0.31421316,0.057925012,0.13985384,0.30211377,0.37511697,-0.3053038,0.25831676,0.21794039,-0.3350635
forest,0.2642867,-0.23234996,-0.2614324,0.31869984,0.20311771,-0.006006871,0.07987065,-0.25126183,-0.25189787,-0.17316326,0.21770866,-0.12438279,0.36743367,-0.21297587,0.00945479,0.34519327,-0.30151922,-0.23362157,0.18534271,-0.18029886
forget,0.0046663242,0.34757498,-0.2580504,0.16338694,-0.31115735,-0.23727706,0.19114938,-0.34861773,0.12700826,0.28299725,-0.28769606,0.27283934,-0.2525732,0.25155497,0.31798667,-0.14644669,-0.029340642,-0.29443923,-0.024462357,0.14118907
fox,-0.21172918,0.4316258,0.16124095,0.36718184,0.25088328,0.3590674,0.47198477,0.030402532,-0.19073653,-0.20318508,0.3442488,0.2040766,0.24006084,0.25274274,0.047837473,-0.3289795,-0.002884788,0.46089426,0.17958432,-0.24420871
fragile,0.23743565,-0.16230103,-0.28334948,-0.21407548,-0.29298323,-0.17663594,0.16948648,-0.17290422,0.2903229,0.23139301,0.17463689,-0.33567792,-0.31450436,-0.31728938,-0.120603725,-0.28627312,-0.16633114,0.34783816,-0.19589083,-0.3008953
fresh,0.2613653,-0.022803703,-0.24582492,0.18282582,-0.12062528,-0.21299265,0.04086209,0.17269588,0.15588172,0.36692336,0.36314192,-0.28593263,-0.18859583,0.17368029,-0.0384713,0.3653448,-0.39422444,0.080214925,-0.30404177,0.34061396
friend,0.053753138,0.3820281,-0.10163593,-0.2457678,0.10966395,0.17948155,0.09628517,0.4433681,0.06579513,0.14383169,-0.41150987,0.016236415,0.3635292,-0.019828318,0.37328765,0.3579247,-0.09431849,0.41420105,0.41364613,-0.25437152
friendly,0.27205,-0.17243661,-0.315629,0.059297867,-0.40175882,-0.025139496,-0.16885424,-0.30083397,0.2667291,0.16439852,0.26751012,-0.3064951,-0.24603088,-0.26965398,0.18937032,0.017376062,-0.2686394,0.26538002,0.12801728,-0.13302521
from,-0.30995494,-0.036584415,0.086631306,0.01901167,0.14192544,-0.21126999,-0.009306364,-0.36141527,-0.19589286,-0.2242197,-0.18788333,-0.27669868,0.17862599,0.28813747,0.3784463,0.26852825,-0.3372715,-0.058524776,0.18268135,-0.33085
full,0.05106384,0.14302891,-0.2654944,0.36886394,-0.15589824,-0.31823242,-0.25520816,0.09627368,0.3351061,0.36339298,0.44760627,-0.2249091,-0.26141065,0.22956666,0.35572618,0.22820336,-0.34000513,0.19896062,-0.26607102,-0.059217002
game,-0.09628152,0.23359327,-0.24674004,-0.19181883,0.22668049,0.031376444,-0.1583278,0.35092872,-0.20259984,0.25604972,-0.2749166,0.3060664,0.19808361,-0.35020688,0.2851606,0.1625161,-0.23670241,0.2838019,0.29752693,-0.114795394
garden,-0.26259714,0.3245994,-0.24506985,-0.06337153,0.27272004,0.15191579,-0.16507575,0.2532062,0.09296267,0.33009687,-0.30009902,0.2805085,0.2678579,-0.2339309,0.27298415,0.13512908,-0.057309646,0.22287868,0.22235002,-0.28069305
get,-0.06561314,0.30405688,-0.2622967,0.24504799,-0.29756075,-0.24853171,0.1923943,-0.27720523,-0.013097946,0.23764259,-0.20664215,0.2971318,-0.23226644,0.18337668,0.3243705,0.06319499,-0.31492355,-0.23517327,0.16436034,0.18732917
girl,-0.26341337,0.33804223,-0.1742508,-0.05254742,0.16403683,0.32862812,0.10502685,0.34466463,-0.22404009,0.20218351,-0.17063701,0.31045103,0.3631189,-0.25331983,0.2710324,-0.11961283,-0.17301764,0.41470873,0.17221977,-0.26600292
give,-0.028523134,0.280384,-0.368655,0.23097666,-0.2929964,-0.22064972,0.22579388,-0.32225037,0.022935268,0.3650107,-0.2466031,0.295801,-0.2226021,0.0932423,0.18126786,0.04955232,-0.017728513,-0.16348526,0.2445854,0.2561718
glowing,0.36449975,-0.28873277,-0.31806564,-0.2952003,0.18752846,-0.2756355,-0.0410573,-0.14808391,-0.19267696,0.20225635,0.21145034,-0.055315677,-0.17226337,0.23734784,-0.29636392,-0.13008003,-0.30613032,0.30001023,0.23945895,-0.22479305
go,-0.21563892,0.3240734,-0.25706604,0.28869626,-0.28730246,-0.20680413,0.28355536,-0.32073364,0.08890173,0.2734985,-0.23606807,0.3009281,-0.06903477,0.04090044,0.3479897,-0.0438826,-0.11664695,-0.26621932,0.18308045,0.11186993
gold,0.13077469,0.27075228,-0.2798056,0.25134945,-0.22356683,-0.2556155,-0.21975498,0.18422647,-0.24482103,-0.06727179,-0.29041016,0.3041683,-0.2267154,-0.22710887,-0.047198027,0.24725536,-0.27148023,0.21629766,-0.28050104,-0.25893825
good,0.051123224,0.2549831,0.12642796,0.07899639,0.18059337,-0.3602317,-0.2763821,-0.052368112,0.31599334,0.027085397,0.45539767,-0.17551292,0.16795228,0.28691638,0.38125324,0.077492565,-0.31108516,0.2222223,-0.38865936,-0.3498958
hand,-0.21882807,0.25979716,-0.20784447,0.07077178,0.311302,0.1415868,-0.33016875,0.33855128,-0.26413688,0.2855122,-0.28619802,0.24964902,0.22798403,-0.23479137,0.16483705,-0.023516867,-0.043452993,0.2603056,0.282132,-0.21136326
happy,-0.37933365,0.36995435,-0.25357378,0.063368276,0.07906026,-0.33503821,-0.04267765,0.033104718,0.20582801,0.18927564,0.18445463,-0.19284604,-0.07859435,0.22137906,-0.012900615,0.1141152,-0.48587194,0.4959465,-0.5069985,-0.31052613
hard,-0.24880864,0.06166135,-0.25407848,0.17615703,-0.07469768,-0.35938627,-0.24873014,-0.097221486,0.16470143,0.11743789,0.42626747,0.27832776,0.0026685635,0.19565399,0.35951772,-0.012811413,-0.3979099,0.2680799,-0.26208317,-0.35493064
have,-0.120144926,0.2718555,-0.29542682,0.34585452,-0.30086216,-0.2441492,0.24175619,-0.30797416,0.012725745,0.2740924,-0.22414286,0.3001105,-0.106986545,-0.020176576,0.19079818,0.1720541,-0.25901815,-0.16357997,0.29528055,0.11873146
he,-0.2782145,0.15681599,0.22706598,0.22386117,0.29107586,-0.112696536,-0.04696057,-0.07301798,-0.08518933,0.25538123,0.2867586,0.042274807,0.26200694,-0.29401582,0.13824843,-0.28421682,-0.3162836,0.2923485,-0.34378666,-0.30573034
head,-0.25276428,0.294662,-0.28209087,0.15503722,0.2638794,0.28513795,-0.13738811,0.21812235,-0.102325976,0.23638473,-0.27552697,0.19602832,0.22110637,-0.25659096,0.24757749,-0.05513286,0.09692966,0.20340072,0.24424873,-0.3069263
healthy,-0.09423599,0.13727802,-0.2395183,-0.10674946,-0.3139416,-0.23815742,0.23465584,-0.009018079,0.19743909,0.23701568,-0.046118915,-0.2169792,-0.3288322,-0.25171518,-0.28764015,-0.22253998,-0.22815573,0.35012084,-0.35398418,-0.31958416
hear,-0.16944936,0.25706026,-0.3202148,0.22053875,-0.32508835,-0.18161441,0.2863459,-0.35107902,-0.12648547,0.33779773,-0.22166133,0.2957352,0.000588124,-0.13298967,0.2240278,0.068612956,-0.061494537,-0.15390517,0.2591567,0.2302113
heavy,-0.27744657,0.23757555,-0.09888052,-0.10898016,0.1499144,-0.405476,-0.2340039,0.29519832,-0.06697213,0.034038916,0.45519435,0.1777213,0.30339262,0.21468052,0.049542654,0.030188276,-0.43706724,0.03072317,-0.3590936,-0.4734372
help,-0.23276167,0.28006628,-0.33216277,0.3540337,-0.27216852,-0.08117545,0.29466772,-0.28351724,0.018335067,0.28016764,-0.22819392,0.30249533,0.094170585,-0.16534345,0.23191392,0.14596574,-0.16303405,-0.24998306,0.21171963,-0.000104028244
her,-0.20838676,0.18616892,0.30629775,0.2367161,0.29356584,0.0016331061,-0.18912,0.27657232,0.17133175,-0.20886171,-0.118399195,-0.24143183,0.2231748,-0.16969518,0.35309935,-0.18672487,-0.11892887,0.28078344,-0.24641882,-0.32305643
hero,-0.16648194,0.26745394,0.19036026,-0.23119399,0.041745014,0.2629135,-0.1615677,0.27278188,0.18150556,-0.33666897,-0.31531408,-0.20945491,0.24827598,0.27550545,-0.14359641,0.22715764,0.19914253,0.21407731,0.23234488,-0.3187125
him,-0.3240841,0.114764236,0.26238602,0.28276932,0.1556872,-0.050622065,-0.07984497,0.18320051,0.05187277,-0.18529977,-0.07679505,-0.2268129,0.32998198,-0.3199699,0.29699174,-0.2494345,-0.12914328,0.32132748,-0.25049832,-0.31072462
hold,-0.04282344,0.2780574,-0.24951674,0.2673509,-0.36038977,-0.15151055,0.22759086,-0.33090177,-0.13515243,0.30490345,-0.28995246,0.2622204,0.07779009,-0.22826977,0.12557288,0.29971582,-0.19785306,-0.13407466,0.30177313,0.054928113
holiday,0.29082116,0.0662565,-0.17467774,0.28117517,0.3420493,0.14699331,0.23731878,0.12382811,-0.07156756,-0.32107323,0.2484228,0.29898417,0.34858596,-0.24786556,0.25555027,0.16499746,-0.20859979,-0.14319775,-0.3265989,0.1502095
home,-0.19208857,0.24912062,-0.2271726,0.19412045,0.3021023,0.2237479,-0.09766278,0.26382798,-0.26729146,0.22518101,-0.23719978,0.21067622,0.24812369,-0.19396056,0.15185419,-0.14548855,0.124620944,0.29369247,0.23586075,-0.30166894
horrible,-0.09302075,0.14754438,-0.33408567,-0.32452947,-0.0012807847,0.2952867,0.14893119,-0.08907687,0.23757954,0.37400225,0.016985573,-0.093248755,-0.37291783,-0.29079643,-0.25381023,-0.3232317,-0.3523338,0.2733363,-0.055442803,0.16105689
horse,-0.30653563,0.2739424,-0.27502173,0.22344263,0.23679404,0.27429867,-0.22256036,0.2648164,-0.24099767,0.20289691,-0.29650852,0.078526765,0.2553988,-0.19814306,0.11035343,-0.20435978,0.05033722,0.15305302,0.2502787,-0.24073887
hostile,0.21377948,-0.30080977,-0.31112933,-0.070844695,-0.12432209,-0.024492923,-0.23188297,-0.24730504,0.23940277,0.17583352,0.36465475,-0.28119707,-0.27103066,-0.1184077,0.2331534,-0.07833955,-0.2935335,0.34532776,0.20074745,-0.14069685
hot,-0.3229223,-0.22791864,-0.44608256,-0.21635395,0.07286378,-0.30655837,-0.32421368,0.11949924,0.0376814,0.021274967,0.25861278,-0.024785753,-0.046415318,0.2545628,0.16039522,-0.1449169,-0.39113227,0.30415675,-0.37769026,-0.38297677
house,-0.2839873,0.33046436,-0.33941707,0.3733891,0.2733978,0.32948542,0.005726258,0.013870284,-0.257663,-0.06409803,-0.3005611,0.13489291,0.07788352,-0.041041974,0.21834983,-0.14000356,0.14295469,0.328959,0.34341648,-0.36917883
i,-0.051805526,0.13632573,0.18576306,0.1764632,0.16949078,-0.217715,-0.14068002,-0.32370302,-0.20063746,0.22287722,0.3570134,-0.14451344,0.38061675,-0.21493165,0.036176354,-0.30880344,-0.1991045,0.3464302,-0.31516957,-0.3069502
important,-0.28817806,-0.2050916,-0.33122203,-0.0030734972,-0.036403585,-0.3059552,-0.24840437,0.034680218,-0.08376198,-0.03825247,0.2718323,0.3348964,0.18108463,0.3227826,0.31714627,0.10769255,-0.317541,-0.008185057,-0.3097956,-0.3257438
improve,-0.2510711,0.13651995,0.24443832,0.051157404,0.06272956,-0.26243111,-0.26164913,-0.10903467,0.18947448,-0.008382605,-0.35293213,-0.31856832,-0.22801404,-0.25267157,-0.23194264,-0.19133477,-0.35186228,-0.19938585,-0.33580795,0.26630458
in,-0.050871726,0.05528551,0.3378648,0.17274907,0.09401593,-0.15838471,-0.11495783,-0.3385442,-0.15506868,-0.23182717,-0.33369288,-0.3014083,0.0521793,0.28612718,0.29413316,0.34540862,-0.28286722,0.02061777,0.29912752,-0.3059045
include,0.04456057,0.16097203,-0.066539794,-0.22639596,0.24010324,0.21040411,0.1854792,-0.3504255,0.21249425,-0.1924045,-0.17298648,0.044727273,-0.33117777,-0.35065114,0.30766183,-0.25420105,0.23011343,0.14281134,0.3248475,-0.30446297
inferior,0.29178736,-0.215356,-0.12554152,-0.2713854,0.35524732,-0.3306299,0.11973237,-0.28196892,0.039201505,-0.2543446,0.27136856,-0.047181774,0.08971026,0.3017768,-0.136158,-0.26517382,-0.30631745,0.23774923,0.17615817,-0.3107352
inside,-0.26352,0.34831393,0.006024798,0.043798182,0.09640639,0.25376505,0.112270094,0.31907198,-0.29955488,-0.11454898,0.06825617,0.36770412,0.32503086,0.10841768,0.31815368,-0.15981555,-0.09188428,0.26036614,0.3015998,-0.2631705
interesting,-0.032193158,0.027229164,-0.29897404,0.31984776,0.13243811,-0.11257568,0.2152763,-0.24399526,0.33009663,0.2456302,0.12606171,-0.30969024,-0.23873399,0.26836014,-0.3375148,-0.12863532,-0.3035607,0.069758214,-0.34601736,0.04881683
into,-0.30003324,0.23294634,0.18203299,0.13278681,-0.06364155,-0.26249206,-0.18679182,-0.32766387,-0.04824469,-0.3036603,-0.23340972,-0.2140901,0.1887609,0.29420683,0.27900872,0.23998252,-0.3290625,-0.22731481,0.21410309,-0.3175301
invent,-0.27515844,0.14777102,0.041715764,0.29620582,-0.1451226,-0.28795597,-0.2636376,-0.031798035,0.29873586,-0.13290885,-0.36334395,-0.24206625,-0.095788196,-0.28930816,-0.015968444,-0.08093585,-0.31692845,-0.15287873,-0.35300425,0.34206304
island,0.068850756,0.13265647,-0.32108828,0.34535432,0.14815459,0.075142026,0.16261812,0.092681594,0.24909215,-0.3428876,0.08048054,0.08231862,0.33845928,-0.33133394,0.34041953,0.06421684,-0.31981668,-0.119257525,-0.39224124,0.35842496
jump,-0.1289902,0.17517772,-0.28583598,0.27740213,-0.3158923,0.019239767,0.29134575,-0.32073987,-0.24403363,0.31858423,-0.18264219,0.35625365,0.1591915,-0.22245379,0.27636284,0.14566645,-0.19391984,-0.15551017,0.09593875,0.12595192
keep,-0.14860213,0.117508404,-0.342127,0.31912115,-0.26968133,0.06889836,0.15824114,-0.26082233,-0.08236604,0.27043563,-0.2920871,0.2648639,0.25273588,-0.2912815,0.18751024,0.2942963,-0.2211429,-0.2540079,0.20915893,-0.12701997
key,-0.23627828,0.24299969,-0.22673562,0.24768272,0.26892105,0.23096259,-0.001656207,0.32713324,-0.31071198,0.14431916,-0.25987443,0.060720477,0.31997594,-0.21076311,0.039201844,-0.21261318,0.19549215,0.17992617,0.2689675,-0.30167714
kind,-0.29171056,-0.14176066,-0.32475245,-0.13029656,0.05073297,-0.27730587,-0.27842045,0.1894627,-0.19050859,-0.22204463,0.22190696,0.20675625,0.15720066,0.27663475,0.07073943,0.037085455,-0.34732458,0.037088197,-0.32756668,-0.31621528
king,-0.27074072,0.3058648,0.15416287,-0.09012331,0.1759481,0.25357363,0.025091685,0.2926929,0.18544182,-0.029121486,-0.31897265,-0.15717989,0.22913302,0.25728804,0.12778786,0.3437483,0.066052064,0.23702334,0.3380258,-0.30650175
kitchen,-0.2489161,0.29289588,-0.29768157,0.30055207,0.20652016,0.30158997,-0.10552538,0.2493618,-0.28012618,0.049689475,-0.22596115,-0.039386325,0.29312167,-0.173768,0.022734977,-0.27256367,-0.008858794,0.0764019,0.27445307,-0.26807034
know,0.18069263,0.15296233,-0.23593639,0.2319226,-0.37316343,0.10783273,0.18275549,-0.33647302,-0.2914743,0.24859837,-0.21033956,0.3588824,0.211387,-0.20865312,0.13122267,0.3102548,-0.2600338,-0.13630028,0.19372657,-0.07569704
lake ,-0.28904364,0.2904235,0.03252561,0.13855855,0.09920697,0.18433572,0.34115687,0.27332324,-0.30430946,-0.056289926,-0.069742836,0.26782218,0.25557265,-0.22587946,0.21634711,-0.37441394,-0.29122433,0.321071,0.045090977,-0.09400641
large,-0.37455428,-0.26759714,-0.3096159,-0.0024717778,0.10335416,-0.28940454,-0.33633643,0.116258375,-0.18366918,-0.14393942,0.17960666,0.21866798,0.06361929,0.23493987,0.09530429,0.052184608,-0.34566042,-0.017593864,-0.3166583,-0.3269608
late,-0.16675422,-0.36932048,-0.3025791,-0.13898103,0.25436625,-0.34230804,-0.22328985,0.11253347,-0.29992083,0.08249793,0.34026727,0.17320421,0.16445714,0.40845358,-0.026512658,0.20238316,-0.34238926,-0.2557906,-0.33924767,-0.3472154
lazy,-0.008367441,-0.014621511,-0.34098446,-0.41198978,-0.05939212,-0.15947272,0.09994777,0.06014461,0.03402979,0.4146024,0.10679555,-0.30644396,-0.36208683,-0.22231431,-0.33532888,-0.22600259,-0.39899552,0.40613395,-0.21055529,-0.05271915
leap,-0.2259379,0.30944607,0.10726801,0.1617453,-0.062214732,0.11192246,0.12033224,0.32989278,-0.35694802,-0.35020515,0.1854672,0.3278851,0.29520074,0.17142536,0.27167886,-0.10681929,-0.061623488,0.3473078,0.28481087,-0.033635195
leaped,-0.12731685,0.32815138,0.04793819,0.22695147,-0.036549725,0.21568921,0.029226309,0.2770439,-0.2545281,-0.25799978,0.07425222,0.267555,0.35255906,0.33722457,0.24595274,-0.025813475,0.10188348,0.25947213,0.3777116,-0.32719052
learn,-0.03755795,-0.099801995,-0.2958569,0.3417707,-0.29465318,0.2458397,0.14436924,-0.2811012,-0.22139105,0.29599306,-0.1763317,0.2913644,0.2409436,-0.26678568,0.34906998,0.25367936,-0.2955777,-0.08267764,-0.074601285,-0.09045161
leave,0.07998618,-0.08513093,-0.27131534,0.28349563,-0.25155637,0.20280135,-0.049604803,-0.30764082,-0.20884313,0.26960695,-0.12662938,0.27924234,0.33386672,-0.21780021,0.19184197,0.2668767,-0.26698527,-0.23357816,0.29821208,-0.2706308
leg,-0.27648535,0.26417875,-0.28422752,0.27001777,0.27425036,0.30666173,0.12083629,0.2683635,-0.2909384,-0.07122375,-0.22266376,-0.09869498,0.2387284,-0.14451359,-0.066020034,-0.24772148,0.12533443,0.14303058,0.31143743,-0.34511358
legend,-0.21457466,0.24253987,0.20181026,-0.16286422,0.13339502,0.25671497,-0.20100336,0.2707279,0.23557264,-0.24832532,-0.2005499,-0.26211664,0.19685595,0.24702793,-0.23345232,0.21362403,0.26584074,0.19136067,0.25870278,-0.2799712
letter,-0.16827254,0.30105045,-0.27270308,0.28388962,0.26931712,0.23924781,0.045592032,0.24918117,-0.2564696,-0.10880313,-0.27579936,-0.053423397,0.3252204,-0.20633346,0.15497111,-0.1517865,0.07011202,0.086019844,0.3128876,-0.33273277
life,-0.13340999,0.27934843,-0.30154413,0.2815638,0.2263007,0.2915675,-0.02048843,0.24503963,-0.306754,-0.16141672,-0.2965338,-0.20434639,0.3157258,-0.22550496,-0.066692084,-0.17110047,-0.14421044,-0.06937567,0.29260254,-0.27701464
light,-0.21032329,0.051930774,-0.5063304,0.22718044,0.19863018,-0.45732138,-0.16017318,-0.017096361,-0.29322153,-0.20485243,0.09060556,0.3823093,0.076056026,0.32641202,-0.273024,0.1785649,-0.43382597,0.18811443,-0.19049129,-0.40168303
lightning,0.015254888,0.229189,-0.31904563,0.3118968,-0.07559011,0.3284864,0.20309177,0.11379112,-0.14474596,-0.19014637,-0.22675413,-0.106844276,0.26911354,-0.2533986,0.3012011,0.25131226,0.31602573,-0.29048926,-0.05838766,0.29929495
like,0.30017117,-0.112622924,-0.21283928,0.21505505,-0.36087433,0.30684856,0.037120055,-0.29307443,-0.25620222,0.2715598,-0.04718299,0.3694147,0.20993331,-0.09539746,0.21699722,0.3183884,-0.3245552,0.0069668484,0.052265793,-0.19639309
lion,0.198412,-0.12190995,-0.23288098,0.22053052,0.09055914,0.31574306,0.22301199,-0.37380946,-0.25565633,-0.28108203,-0.021841364,-0.37136978,0.292246,-0.2890867,0.20225868,0.35862467,0.04299984,-0.28791702,0.051048648,0.18623587
little,-0.4276198,-0.22334673,-0.16825081,0.16991086,0.24923864,-0.32111284,-0.38835835,0.05880795,-0.26381576,-0.030443965,0.2276308,0.21120034,-0.1003256,0.2101153,0.009108329,0.043358505,-0.29557747,-0.07669917,-0.33271328,-0.2645506
live,0.10051502,-0.27624837,-0.23673932,0.37220526,-0.23621099,0.30228767,-0.11364535,-0.34603235,-0.21448028,0.26520947,0.0023626788,0.24026328,0.264491,-0.1793922,0.32784763,0.1326931,-0.2913192,0.07923436,0.06442856,-0.25529915
lived,0.1252385,0.21313712,0.30742788,0.3257331,0.07055098,0.12075745,0.34272105,-0.29180574,0.18143561,-0.031539407,0.30396137,-0.119819075,0.2668962,0.3378568,-0.15896715,-0.34456503,0.01818518,0.39390516,-0.15811493,-0.34145495
long,-0.2806506,-0.21300824,-0.11423359,0.14332862,0.35726842,-0.35443136,-0.24851987,-0.03561313,-0.3464239,0.16574086,0.28950864,0.31943205,-0.06490352,0.1608778,-0.24666785,0.003970838,-0.2823,-0.12721455,-0.113825515,-0.33541003
look,0.22780235,-0.187776,-0.110639185,0.20106466,-0.24854293,0.26827034,-0.19260466,-0.24043883,-0.22672881,0.31651726,0.12103345,0.29498175,0.3285277,0.006344945,0.2554077,0.26925698,-0.2043782,-0.054096717,0.2726021,-0.3131706
loud,-0.32980013,-0.22206114,-0.18234837,0.28480786,0.20342699,-0.37488514,-0.3401195,-0.1039869,-0.02751899,0.08528968,0.36547577,0.35261318,-0.17210042,0.12819122,-0.026432153,-0.18058197,-0.33788377,0.17599665,-0.1309032,-0.3443824
love,0.2881732,-0.2926,-0.23755072,0.15912215,-0.37652084,0.2879008,-0.14834727,-0.29247218,-0.0636137,0.29129252,0.121927105,0.33539382,0.18422261,0.07171648,0.2901992,0.124540746,-0.29300234,0.13461989,0.11672557,-0.2187923
magazine,0.2093435,0.113781124,-0.1689133,0.38716742,-0.04055401,0.24849053,0.13589807,-0.12199496,-0.24595594,-0.23717046,-0.2244583,-0.28042287,0.32883087,-0.29011843,0.23184174,0.21041091,0.14196534,-0.3898883,-0.23218112,0.2665495
make,0.13347876,-0.2339051,-0.12366749,0.26100633,-0.18858898,0.3432896,-0.27757287,-0.26829305,-0.18919733,0.26340973,0.21127056,0.2163457,0.32411698,0.002309443,0.26468617,-0.011590391,-0.23905851,0.30104655,0.18427661,-0.3675051
man,0.13573998,0.43457004,-0.22785358,0.49015084,0.26697513,0.37655064,0.2121809,0.090359405,-0.14124621,-0.43382028,-0.09668618,-0.25140452,0.16144153,0.0068981247,-0.066904195,-0.10936525,0.057318155,0.22300512,0.3678434,-0.41589788
me,-0.26063597,0.24115168,0.27688026,0.27449134,0.2691612,-0.07695444,0.11664555,0.28502432,0.23635627,-0.065312736,0.037103213,-0.22537325,0.2682774,-0.26005727,0.29304516,-0.17305318,-0.16778764,0.2640958,-0.2929924,-0.31069845
milk,0.008195012,0.2575054,-0.28496096,0.2943672,0.2616845,0.21408252,-0.031930357,0.2934129,-0.2056881,-0.24788943,-0.22290707,-0.17054693,0.33061266,-0.2482132,0.25307092,-0.009381048,-0.16091958,-0.07531582,0.32305062,-0.38536114
mirror,0.14484128,0.1281243,-0.31914008,0.51954305,0.33356154,-0.22243807,0.023857683,-0.20117779,-0.42406783,-0.325339,0.06412426,0.282791,0.4069558,-0.08896944,-0.07943034,0.5324884,-0.061212845,-0.015882507,0.14636783,-0.4229498
miserable,-0.35868645,0.32781982,-0.25026903,0.20337068,-0.009875751,-0.10461542,0.21533446,0.15427457,0.21593595,0.31308827,-0.096500285,-0.27999306,-0.31299165,0.16122279,-0.3616737,0.14120238,-0.31409788,0.24164654,-0.3432407,0.1256993
modern,-0.15678066,0.27345484,-0.26513106,-0.29583865,0.3040633,0.23263806,0.27393195,-0.08777736,0.2528181,0.07830173,-0.03515737,-0.26783484,-0.2783941,-0.30638778,0.15854761,-0.26192236,-0.32221434,0.20999998,0.09683225,-0.024061188
money,0.03568694,0.3481791,-0.23807903,0.3540422,0.19424053,0.21871205,-0.10479881,0.14974162,-0.14607242,-0.22183439,-0.33644158,-0.28848064,0.27450138,-0.27383184,-0.11705022,0.03872767,-0.23207846,-0.10167083,0.3453549,-0.29857364
moon,0.17558144,0.31178918,-0.2808445,0.32055363,-0.0739856,-0.24708076,-0.1530599,-0.1585524,-0.23916417,-0.30152,-0.21301186,0.20909,0.0648909,0.14026344,-0.31612065,0.30560398,-0.27915376,0.14215678,-0.14055783,-0.25353172
morning,0.16996273,0.25553423,-0.26875398,0.27712318,-0.28388867,-0.1818745,-0.26491487,0.10672888,-0.13907051,-0.07397243,-0.30132914,0.23107411,-0.17281586,-0.18970625,-0.07018776,0.3192886,-0.18235564,0.3153737,-0.2540905,-0.2935866
mother,0.30632114,0.23406579,-0.14906336,0.3570602,0.1612224,0.13896796,-0.08568184,0.2909663,0.04374167,-0.3710135,-0.17951457,-0.27343056,0.24310547,-0.2144493,0.10929193,0.15442212,-0.24299961,-0.04789774,0.33680716,-0.4106136
mountain,-0.05576285,0.40761268,-0.32341182,0.38509214,0.033999115,0.14873469,-0.352552,0.24514386,0.025878629,-0.38226846,-0.42545414,-0.20165722,0.39001963,-0.20184168,0.15394992,0.32546183,0.08570421,0.04415161,0.3074212,-0.111453585
mouth,0.120297566,0.20618215,-0.06872721,0.327717,-0.019819211,0.024421532,-0.27586117,0.05055855,0.12402424,-0.20712957,-0.34982988,-0.29264265,0.27625573,-0.40495676,-0.14574677,0.24819714,-0.2389033,-0.16172561,0.34795967,-0.3302696
move,0.16026554,-0.2593688,-0.085369684,0.0735542,-0.2875622,0.26223156,-0.27426496,-0.3022959,-0.014507389,0.3193754,0.28164142,0.2574583,0.3077353,0.2157473,0.3519298,0.09777473,-0.07631528,0.08873621,0.3458722,-0.21903463
name,0.21868663,0.066507734,-0.023837263,0.36588314,-0.080305144,0.021555712,-0.25534776,0.19910555,0.22624475,-0.39196038,-0.2841105,-0.17793909,0.259675,-0.151169,0.04588346,0.30796716,-0.12816532,0.012121219,0.35764346,-0.37725103
near,-0.03430821,0.17658132,0.258084,0.11500684,-0.19331975,-0.17825393,-0.30656075,-0.3037439,0.13698648,-0.16617177,-0.3414889,-0.29453835,0.17135812,0.24953045,0.29465193,0.21021895,-0.32084438,-0.013846579,0.31493017,-0.27226695
necessary,0.33300066,-0.16393305,-0.11679649,-0.27241388,0.24157925,-0.22788522,0.29202387,-0.21546684,0.23380274,-0.021001661,0.17909507,-0.16802365,0.17152634,0.27725622,-0.21644196,-0.10194003,-0.24333224,0.37385172,0.16406311,-0.31163618
need,0.19862106,-0.27509564,-0.31107178,0.04672312,-0.26477337,0.28511897,-0.27632475,-0.19707532,0.10617133,0.26745975,0.23175111,0.2791975,0.2199573,0.14184609,0.28435907,-0.15204696,-0.2180017,0.26462838,0.19698335,-0.32343212
new,-0.35466084,0.025416475,0.033254735,0.2840044,0.29404446,-0.3485173,-0.3088183,-0.0700796,-0.33963156,0.20186451,0.2675018,0.18669526,-0.34842843,0.053187836,-0.09396504,-0.051825088,-0.31365967,0.0044490043,-0.31005833,-0.24714305
night,0.23407866,0.26852125,-0.2066696,0.44902995,-0.32375607,-0.16288087,-0.42927244,0.07928645,-0.022548962,-0.3101453,-0.41349304,0.023392228,0.16220447,-0.16059692,-0.30160552,0.38886145,-0.10898049,0.13749531,0.09806131,-0.39292336
noisy,0.14301486,0.1442107,-0.22531576,0.27687314,0.25366214,-0.17084812,0.25224638,-0.33833894,0.30686942,0.20902504,0.27923757,-0.28004277,-0.09072539,0.2100106,-0.30190772,-0.054179814,-0.21645136,0.11168248,-0.35394493,-0.15648124
nose,0.041121718,0.0058795563,0.15875927,0.29525948,-0.2551615,-0.14608026,-0.34262395,-0.16693982,0.36767623,-0.26977944,-0.36064848,-0.16632377,0.31048232,-0.32424328,-0.15208453,0.30799493,-0.043313637,-0.0044371667,0.3430243,-0.3553853
novel,0.012436841,0.14717229,-0.30386305,0.18617272,-0.013107484,0.330129,0.19638678,-0.17950362,-0.14855343,-0.26319808,-0.18633276,-0.27715802,0.32550594,-0.2749165,0.31980407,0.33686292,0.20382705,-0.22136801,0.049627535,0.24513547
observe,-0.33901963,-0.07058134,0.25885588,0.06300483,-0.16753069,-0.27684447,-0.20727643,-0.20007138,0.35705382,-0.075952575,-0.24788432,-0.20794713,-0.1615218,-0.29509848,-0.08018301,-0.31361732,-0.292797,-0.2797727,-0.20034628,0.32835802
ocean,-0.11250085,0.28967893,-0.09993494,0.5018026,0.185965,0.08529841,-0.07595689,0.20648116,0.1647951,-0.47667253,-0.22840363,-0.113869764,0.17378728,-0.41379854,0.42179,0.42675588,-0.013607668,-0.029939445,-0.30085853,0.13695125
of,-0.2337614,0.29080912,0.19861577,0.018097613,-0.20820373,-0.36172217,-0.30074412,-0.22265308,0.26974624,-0.21249437,-0.26131222,-0.25189558,0.13638371,0.21889427,0.20422328,0.025736468,-0.28005266,-0.16762607,0.16988952,-0.3269391
off,-0.032895755,0.30600396,0.10299541,-0.00349912,-0.20422798,-0.21069713,-0.25679603,-0.2665318,0.066135325,-0.26905894,-0.32319307,-0.13465793,0.27662665,0.2076561,0.33637565,0.063582934,-0.314166,-0.2431176,0.21517897,-0.32763237
old,-0.36157405,0.026580937,0.048083264,0.20276876,0.3962959,-0.36334065,-0.2404334,-0.115648754,-0.33386672,0.12384812,0.2694021,0.30577803,-0.062434487,-0.16333157,-0.15477736,-0.15082258,-0.32099518,0.14110667,0.003784967,-0.41581503
on,-0.020934923,0.25579593,0.10788965,-0.057068035,-0.3172995,-0.21467473,-0.32512358,-0.232261,0.33218226,-0.21699888,-0.33188683,-0.17346606,0.28973317,0.15438738,0.26550648,-0.027523799,-0.36189276,0.04900471,0.20288506,-0.28118473
once,0.23591983,0.011491927,-0.09551298,0.22459874,0.13657501,0.17202508,0.31938368,-0.2808906,0.19516337,-0.020995216,0.34605396,-0.30408755,0.12945865,0.28338325,-0.31486472,-0.31847462,-0.06428137,0.2980991,-0.19690426,-0.2502105
opaque,0.3118662,-0.26677755,-0.20794551,-0.35400334,0.3401572,-0.23625185,-0.09542501,-0.18962258,-0.03295869,-0.04936988,0.21430565,0.16472313,-0.055570822,0.28165266,-0.25197038,-0.26271847,-0.25079948,0.29122633,0.24702331,-0.32820824
open,0.01951241,-0.15229066,-0.023554953,0.024569826,-0.16714543,0.31343377,-0.29659364,-0.22150917,-0.03595563,0.28245714,0.30730984,0.1651751,0.3870127,0.20722756,0.28958532,-0.11779255,-0.07299696,0.39666036,0.2381667,-0.3168597
optional,0.30979788,-0.08188302,-0.11390892,-0.26207408,0.29816413,-0.31239066,0.0243189,-0.22936825,0.22419444,-0.12826361,0.19347696,-0.31037048,0.11533766,0.32060093,-0.14558004,-0.17802155,-0.34258208,0.21387692,-0.028961405,-0.31337965
organize,-0.27642423,0.19782488,0.3739064,-0.31494716,0.18126452,0.0850414,-0.30149674,-0.17986216,0.24150312,-0.40627417,-0.31779876,0.14610688,-0.34292558,-0.2573743,-0.21235746,-0.13881525,0.10838394,0.19392683,-0.01443649,0.101135634
out,-0.1421178,0.36761224,0.18408182,-0.21424435,-0.24874884,-0.32664946,-0.28225344,-0.050382983,0.20994183,-0.3040119,-0.2956604,-0.09828462,0.2724287,0.106310725,0.18232565,-0.17088157,-0.287418,-0.20560701,0.16374984,-0.32941106
outside,0.09256457,0.33559597,-0.12817349,-0.20258497,-0.30713895,-0.20916112,-0.23503193,-0.2368957,0.17150693,-0.21443744,-0.37954056,-0.031433333,0.3450308,0.07751827,0.36554936,-0.15177476,-0.36008465,-0.15360364,0.011080939,-0.32091185
over,-0.044714212,0.3284657,0.007431307,-0.2027876,-0.38612837,-0.18502633,-0.26839578,-0.04851187,0.27737644,-0.29296067,-0.33425012,0.046769887,0.31952882,-0.021500584,0.19299811,-0.24896722,-0.3089426,0.22329824,0.08113451,-0.35086602
over ,-0.26438418,0.37088594,-0.22238559,0.10908802,0.013634943,0.1993874,-0.20389727,0.35927442,-0.27794537,-0.29684377,-0.19994716,0.072615325,0.2919821,0.046817362,0.3735403,0.2333857,0.2859803,0.07155503,0.22562031,-0.11398482
painting,0.32108432,-0.14207281,-0.14613503,0.3040402,0.34454206,0.014788775,0.24179143,0.1369036,-0.26301584,-0.31346273,0.26416203,0.3005047,0.37131116,-0.18829738,0.09716776,0.29682472,-0.14689477,-0.21571274,-0.11884585,-0.11112996
paper,0.15219595,-0.09052006,0.118556306,0.4186086,-0.16336244,0.02642378,-0.2714264,-0.011056804,0.1451118,-0.38110706,-0.38020787,0.06029708,0.21199031,0.0555331,-0.0064875423,0.37676305,0.02897275,0.2443724,0.42225993,-0.3973099
park,0.101728156,-0.071594656,0.12538487,0.34651104,-0.27360243,0.1165523,-0.31131902,-0.11926823,0.1580343,-0.20980811,-0.35230568,0.18018116,0.22788106,-0.21977815,-0.3464381,0.27208546,0.15825266,0.20698492,0.25440252,-0.31228194
passion,-0.271215,0.054664023,0.24482958,0.30708417,0.28498253,-0.29342812,-0.23672487,-0.22444549,-0.30751395,0.24467658,0.24394576,0.14499795,-0.28347242,-0.18384159,0.07981525,-0.16467376,-0.32806623,0.17676088,-0.15079218,-0.3149015
pen,-0.18459177,-0.00390353,0.16270888,0.294122,-0.3582653,-0.110914886,-0.28544667,-0.45239854,0.17411162,-0.32969126,-0.36720988,0.10839727,0.17611513,-0.0716579,-0.037338484,0.27111697,0.19494973,0.3170837,0.20889072,-0.3449944
perform,-0.29822537,-0.03272319,0.2827252,-0.20757571,0.079656444,-0.22922386,-0.28811502,-0.175308,0.22254963,-0.1712546,-0.32381868,-0.20394659,-0.2794348,-0.33031166,-0.194046,-0.19192606,-0.2387568,-0.15164445,-0.19155541,0.29907256
permanently,-0.031747397,0.32357398,-0.17834708,-0.24269038,0.24664475,0.3318936,0.28468472,-0.23982869,0.195135,0.09360641,-0.025977358,-0.18720211,-0.37505323,-0.34802964,0.19087535,-0.30793217,-0.22420081,-0.011591753,0.2715238,-0.10792123
person,-0.0635434,-0.2371476,0.21552372,0.3186882,-0.19842526,0.16791615,-0.2291817,-0.14266998,0.2596885,-0.28509986,-0.31653675,-0.04610738,0.28606695,-0.16871499,-0.097986884,0.26358208,0.19507992,0.2775707,0.30153763,-0.26434857
phone,-0.1542658,-0.16702509,0.22516553,0.24640565,-0.3331391,0.2007351,-0.2627842,-0.28617096,0.23031215,-0.20386879,-0.28447157,0.06694904,0.3021186,-0.3129152,-0.24880171,0.046742328,0.31048304,0.19300959,0.23511562,-0.2950731
picture,-0.19618872,-0.18010265,0.16641222,0.24100664,-0.1384606,0.1890462,-0.2592913,-0.29997826,0.25949037,-0.3218889,-0.33578715,-0.0061971424,0.21727656,-0.16100058,-0.010053686,0.08342829,0.26352033,0.30053395,0.25006682,-0.2264985
pilot,0.32506338,-0.21298021,-0.16195783,0.33752343,0.07900822,-0.018353028,0.27840388,-0.15091586,-0.30208662,-0.12432064,0.27363276,-0.17811704,0.33528087,-0.3034605,0.0026452027,0.22852857,-0.2485021,-0.3416433,0.013349115,-0.1437732
place,-0.31297222,-0.21405536,0.06524878,0.27696007,-0.17264637,0.17216878,-0.2108407,-0.18127972,0.25295454,-0.3064206,-0.29129222,-0.12376731,0.3043906,-0.29459092,-0.019446488,0.1789302,0.27650782,0.18892963,0.19625506,-0.27481434
plan,-0.33901292,-0.020464918,0.35718486,-0.056997698,-0.04410432,-0.28652978,-0.3106933,0.07728296,0.3235123,0.012895023,-0.27233687,-0.15975302,-0.3206462,-0.2693931,-0.22579755,-0.19686143,-0.22738148,-0.10582885,-0.256829,0.25064445
plant,-0.22747794,-0.18371493,0.13010293,0.23783587,-0.21700379,0.24954061,-0.25444856,-0.2907512,0.24814203,-0.25849456,-0.28691173,-0.20028105,0.29655617,-0.27879408,0.052180782,-0.12991953,0.27430278,0.14470091,0.26231888,-0.21938719
play,0.060486555,-0.1804005,-0.21888198,-0.08116924,-0.2225682,0.3357308,-0.2707614,-0.32506776,0.2321591,0.25544506,0.34417674,0.12696327,0.23720512,0.23592,0.3225888,-0.1737356,0.08072118,0.15135974,0.3612215,-0.21756186
polite,0.35240278,-0.27953783,-0.2978343,-0.067163125,-0.2338494,-0.08375501,-0.051691703,-0.21489209,0.25711042,0.19439715,0.30834308,-0.30173048,-0.30161557,-0.2079269,0.18818296,-0.13376896,-0.06558831,0.33848408,0.056352075,-0.28328425
pond ,-0.37613237,0.19914046,0.0046566506,0.32207757,0.34982958,0.012456659,0.17085154,-0.35582516,0.30892554,-0.25627837,-0.05110015,-0.051398378,0.054850988,0.07801077,0.32540652,0.20543157,0.08036627,0.352362,0.29856926,0.017939221
poor,-0.27440748,0.12543182,-0.117219985,0.31770855,0.27417654,-0.34294772,-0.18989933,-0.1201318,-0.11664724,0.20672555,0.33321235,0.25373644,-0.29129493,-0.13880736,-0.0533727,-0.23897631,-0.31465182,0.21395773,-0.16376774,-0.26139218
prince,-0.16925618,0.28698024,0.28068164,-0.20238706,0.14170069,0.3032446,0.03160187,0.26849788,0.22314645,-0.22171937,-0.27283958,-0.2620333,0.27274597,0.21822484,0.016914532,0.23731525,0.08604144,0.14016385,0.2988865,-0.28081334
princess,-0.2829602,0.3343918,0.13840598,-0.16232972,0.10490361,0.18764606,-0.047525145,0.1623179,0.18710282,-0.21685213,-0.26293343,-0.28512302,0.31216055,0.24470441,0.026622003,0.3718537,0.14309262,0.2310866,0.20136394,-0.32160074
protect,-0.08458594,0.3439912,0.31783035,-0.40778303,0.20457917,0.21629953,-0.11900899,-0.281557,0.1368794,-0.3748875,-0.084641434,0.25022602,-0.33242846,-0.21040735,-0.06461215,-0.24133517,0.18462159,0.22748268,0.19638875,-0.094274595
protest,-0.40392384,0.029829076,0.35435224,-0.25003406,0.10057988,-0.10392447,-0.38639033,-0.013611687,0.28425,-0.1647985,-0.3242024,-0.014598204,-0.3213718,-0.27603617,-0.31161553,-0.13781115,-0.053635605,0.117116176,-0.25810304,0.21888594
put,-0.018195596,-0.11834522,-0.29422238,-0.115871154,-0.11302665,0.27402773,-0.35267887,0.023543384,0.20267797,0.22530158,0.28577954,0.11283901,0.27569976,0.19334432,0.3210961,-0.26935083,-0.03652149,0.35204914,0.20895667,-0.35886225
queen,-0.1031771,0.3122966,0.07130618,-0.31064922,0.11056249,0.23764677,-0.03657953,0.31013814,0.18473941,-0.20978904,-0.32759503,-0.20547532,0.27770445,0.22453596,0.042766638,0.30574203,0.037820283,0.2836121,0.2819293,-0.31394187
quick ,-0.28022173,0.291598,0.060089566,0.12946066,0.13027835,0.13850285,0.22709678,0.33447087,-0.3149207,-0.1658366,0.15404905,0.31912625,0.31998742,0.008971501,0.3008757,-0.2515246,-0.30202252,0.2923153,0.19803105,0.026169835
quickly,-0.00045470966,0.29440778,-0.2697164,-0.25699493,0.3310316,0.29528153,0.2722502,-0.2346427,0.31864616,-0.16006222,-0.06904897,-0.16762207,-0.22344208,-0.26419696,0.2024728,-0.23890857,-0.20532686,0.24962842,0.19111536,-0.13606319
quiet,-0.49966606,0.11672936,-0.111426674,0.5416602,0.38553062,-0.22824919,-0.15395035,-0.47136548,-0.0017103913,-0.15124394,0.25837532,0.2748575,-0.034458235,-0.18910763,0.43379316,-0.043203834,-0.24824218,0.5163545,0.2211789,-0.36258954
rain,-0.2891552,0.3185581,-0.27575845,0.3169559,-0.08652551,-0.22231314,-0.123898804,0.20423898,0.17071055,-0.2853935,-0.32056206,-0.06804524,0.008086335,-0.17399111,0.27232093,0.29840603,-0.19565374,0.23263653,-0.28916872,0.11327559
read,-0.12585764,-0.024268202,-0.021957379,-0.21796189,-0.050378792,0.28351828,-0.29288125,-0.18535952,0.12748651,0.3177881,0.33504704,0.050029796,0.3123915,0.28122807,0.25036493,-0.2379503,0.14121804,0.34527692,0.25391236,-0.30703858
red,-0.17432997,0.08161396,-0.022121174,0.2969823,0.24412994,-0.2545844,-0.19703816,-0.21035612,-0.111139484,0.3264467,0.29183713,0.024328062,-0.25519255,-0.24574396,0.2329583,-0.22827613,-0.34051827,0.2542559,-0.2530884,-0.24016567
regular,-0.12253889,0.29701945,-0.20657654,-0.279663,0.1254619,0.34406877,0.22355634,-0.17432524,0.26910794,0.26226062,-0.08742079,-0.2550012,-0.34522498,-0.3683831,-0.029166872,-0.2901196,-0.273802,0.13541582,0.09346852,-0.029513627
rich,-0.27404082,-0.13269778,-0.007688049,0.22077,0.35653535,-0.36796814,-0.25804093,-0.1865475,-0.03956138,0.26164365,0.29909286,-0.00076959666,-0.17098998,-0.22050379,-0.04624651,-0.14880249,-0.3190996,0.23352623,-0.11864956,-0.38584182
river,-0.40951532,0.06914078,-0.08496039,0.4510643,0.26218057,0.2092829,-0.15827717,-0.23642243,0.17358093,-0.37266442,-0.296495,-0.22156352,0.35456902,-0.17825839,0.2392575,-0.030501353,0.2733005,0.38802412,0.43602532,-0.19080482
riverbank,-0.033683088,0.31147274,0.20415032,0.33288893,0.067786396,-0.046033066,0.29388732,0.0368875,0.30986106,-0.38306823,-0.07018561,-0.033766758,0.05106505,-0.42581242,0.38634676,0.00925165,-0.33784652,-0.20058057,-0.31658012,0.29810607
road,-0.30817866,-0.10877676,-0.12781794,0.4448703,-0.34748748,0.15576525,-0.30977756,-0.15836768,0.18552595,-0.43636414,-0.43400618,-0.276685,0.28649867,-0.42462024,0.42048696,0.101324044,0.10199868,-0.11265966,-0.0042435196,-0.08766577
rocket,0.30176038,-0.08489168,-0.18461269,0.4194492,-0.0822956,0.10078326,0.22600964,-0.18675728,-0.37171626,-0.15385787,0.06815154,-0.26223344,0.38122225,-0.34811193,0.12820895,0.22364308,-0.122969724,-0.40434054,-0.13886729,0.07286587
room,-0.3175674,-0.24556275,0.1268587,0.29740006,-0.15110536,0.03451459,-0.33738875,-0.303342,0.07855382,-0.25699347,-0.24759993,-0.32411835,0.28977138,-0.122078955,0.25916004,-0.22314832,0.3088181,0.09866826,0.17700964,-0.15305223
rude,0.14103676,-0.19315828,-0.26670948,-0.14544463,-0.24380319,-0.13556783,-0.28180617,-0.3081909,0.29776722,0.20048235,0.30257282,-0.268547,-0.311011,-0.33483344,-0.005531013,-0.21661362,-0.27031654,0.26223868,0.06433696,-0.21670832
run,-0.071138404,0.032209206,-0.3289745,-0.17951599,-0.018060587,0.31103086,-0.27836162,-0.16905667,0.35781243,0.13979067,0.30898938,-0.095917635,0.250499,0.08724938,0.3290127,-0.33795622,0.22507845,0.2504731,0.30622092,-0.26140204
sad,-0.16077928,0.09798353,-0.043831076,0.24993373,0.27744547,-0.3582079,-0.23732883,-0.17492041,0.17835248,0.24744809,0.41669512,-0.12859653,0.032166768,-0.15753914,0.1792018,-0.08988804,-0.35845116,0.3425757,-0.3003973,-0.30702275
safe,-0.22546346,0.28665894,-0.22904034,-0.11885135,-0.17484218,-0.2739289,0.14632063,0.28126228,0.13100295,0.3672444,-0.025153954,-0.24240701,-0.26379254,-0.091543585,-0.30118334,-0.026177937,-0.33975863,0.33254343,-0.33364347,-0.10054602
say,-0.25709203,0.09764252,-0.20497173,-0.27086714,0.021388087,0.2223452,-0.3305712,0.20860569,0.13919935,0.30975652,0.35302973,-0.061711457,0.24189752,0.14702953,0.28491497,-0.26765323,0.16694544,0.33807418,0.2253551,-0.3266239
school,-0.11978775,-0.2618535,0.13577943,0.37676936,-0.285321,0.016794415,-0.27511305,-0.17872858,-0.078371085,-0.40349874,-0.3805932,-0.11197795,0.29493833,0.1495856,0.40632543,0.1058176,0.26905873,0.23253967,0.3297585,-0.27952707
sculpture,0.26665002,0.2096432,-0.3059311,0.34054273,0.30890316,0.14596589,0.21222924,0.10590275,-0.19352421,-0.27989054,0.2392339,0.25314417,0.32759723,-0.33164927,0.15259087,0.32566455,0.037483778,-0.16390859,-0.102926984,-0.04832338
sea,-0.31380558,-0.18033953,0.073500164,0.3334777,-0.26708832,-0.040022086,-0.29221615,-0.26245314,-0.17365699,-0.2617051,-0.3478881,-0.3299472,0.34309545,0.05974572,0.24463478,-0.15334639,0.2767546,-0.17286554,0.047841847,-0.11803122
secure,-0.13989541,0.16228145,0.08543601,-0.25188527,0.22680958,0.19171593,0.006192289,-0.2848612,0.32262096,-0.28916055,-0.22089787,0.21356918,-0.37739104,-0.36304566,0.100278236,-0.19458963,0.12590297,0.18405579,0.3489545,-0.20480643
see,-0.1842982,0.16548023,0.011299696,-0.33404186,0.19182599,0.17332074,-0.26623687,-0.16595109,0.23212877,0.24476753,0.28990284,-0.16542582,0.26553318,0.13053735,0.18918225,-0.32627133,0.32720712,0.27978826,0.24482596,-0.30413997
sell,-0.25507897,0.25582254,-0.30150634,-0.23919208,0.12675427,0.17169939,-0.23045465,0.05096445,0.2143629,0.13233468,0.31410372,-0.26108512,0.19391957,-0.14339685,0.18426184,-0.3105697,0.28713045,0.30401215,0.29429966,-0.29236832
send,-0.28702605,0.2890647,0.027839195,-0.29690114,0.17862152,0.06717124,-0.23849292,0.18967406,0.0052881083,0.32773837,0.33607134,-0.18342015,0.14542757,-0.048094068,0.1805102,-0.35812408,0.30051452,0.31501657,0.22545394,-0.27154744
shadow,-0.06332929,0.32678875,-0.20414981,0.3035152,0.08852413,-0.18372588,-0.15076198,-0.25107503,-0.27316868,-0.29116324,-0.28242373,0.2713354,0.1289186,0.22210692,-0.16971792,0.3493601,-0.20083727,0.2638379,0.0021397974,-0.30323997
shallow,0.28257492,0.19228818,-0.32579675,0.05359767,0.026278887,-0.32448447,0.05458954,0.26633507,0.19568618,0.32974288,0.37806812,-0.38313493,-0.07011435,0.27190307,-0.029033123,0.15226929,-0.32138675,0.08959197,-0.2606579,0.011391322
sharp,0.2279494,-0.22703558,-0.25392908,-0.24087676,0.2740934,-0.3064879,0.10952238,0.09228517,-0.2590402,0.24085185,0.29807884,-0.17118049,0.2693062,0.30181426,-0.2819118,0.2445029,-0.33096626,-0.24747024,-0.14764416,-0.11081737
she,-0.19989493,0.14916138,0.30341393,0.29553136,0.21750194,-0.13963,-0.15993859,-0.06076731,-0.082717955,0.11513358,0.26560596,-0.31467146,0.28771493,-0.2345774,0.2597649,-0.32529238,-0.20296326,0.3488297,-0.25127426,-0.24906918
sheep,-0.32344332,-0.13233821,0.101437286,0.37624195,-0.14774252,-0.17822348,-0.37146133,-0.28055695,-0.08367553,-0.2706177,-0.26695058,-0.31285748,0.31952137,0.09434394,0.22628552,-0.18205193,0.1904156,0.21715999,-0.02536682,-0.16184229
shiny,0.3167404,-0.2973883,-0.28612006,-0.37761274,0.27031845,-0.061998,-0.1257045,-0.10005224,-0.0068330397,0.24584237,0.22390501,0.22148286,-0.21988389,0.16725129,-0.31314808,-0.21066181,-0.32700327,0.28410503,0.17500198,-0.111404926
shoe,-0.26821977,-0.07455969,0.044340696,0.32041758,-0.25579628,-0.19714661,-0.25965685,-0.20410375,-0.22026543,-0.31078154,-0.35292658,-0.3085154,0.35061663,0.20762736,0.21007296,-0.038932253,0.3075661,0.13712686,-0.03674388,-0.10118936
short,-0.052018497,-0.16556591,-0.21553163,0.1770861,0.24131219,-0.2503538,-0.19734952,-0.23392753,0.004799354,0.39378372,0.33585358,-0.13350715,-0.21914527,-0.2290616,0.1662667,-0.10753119,-0.32545936,0.27012286,-0.29723272,-0.2925275
show,-0.289599,0.29149625,0.03004885,-0.32196882,0.27233136,-0.025100624,-0.061872173,-0.15386319,0.12245566,0.18382108,0.31740692,-0.28718707,0.20790793,-0.15584038,0.027072845,-0.3139549,0.34765866,0.2311457,0.30355826,-0.32221356
sick,-0.32260165,0.22332011,-0.28862327,-0.14452511,-0.15545441,-0.22377022,0.028944544,-0.06315811,0.071357034,0.31640238,0.046259064,-0.21721593,-0.25720948,-0.13698599,-0.20527187,-0.19387288,-0.38165006,0.34322417,-0.31219295,-0.20809531
silent,0.19768652,-0.14601341,-0.22285801,0.32075766,0.10342025,0.11860461,0.2440079,-0.29476255,0.3117633,0.18268088,0.25794232,-0.32070336,-0.093873635,0.33218592,-0.35915303,-0.30168858,-0.20791014,0.13146096,-0.295325,-0.10700427
silver,0.222694,0.31415692,-0.22138171,0.26387691,-0.26638243,-0.24209769,-0.28676438,0.27879772,-0.12048883,-0.038953353,-0.29558465,0.19228053,-0.197595,-0.27270886,-0.16735601,0.2246123,-0.2246333,0.11519695,-0.16739345,-0.27917787
simple,-0.18758452,0.17444347,-0.29175025,0.23692934,0.19590858,0.13990472,0.31647202,-0.13611308,0.2314581,0.24118403,0.04396982,-0.27065614,-0.30093652,0.3208488,-0.34771463,0.122560084,-0.27396786,0.10153209,-0.33576292,0.10711282
sing,-0.32088858,0.3372695,-0.20391439,-0.2426081,0.15604734,-0.036798026,-0.21654038,0.08679953,-0.0658402,0.19472098,0.2818001,-0.1995465,0.028004106,-0.25733602,-0.06842853,-0.2832286,0.30178022,0.33619452,0.3377108,-0.2981561
sister,-0.25557318,-0.07999848,0.061109416,0.3950713,-0.18276596,-0.2146639,-0.3787448,-0.32313988,-0.28234342,-0.28753752,-0.3143529,-0.27958596,0.34522423,0.2745626,0.021881176,-0.09931393,0.107245885,0.028000867,-0.081207536,-0.26485795
sit,-0.311285,0.35558486,0.2176664,-0.25748342,0.13004705,-0.12283666,-0.06656806,0.0702465,-0.14068352,0.29344982,0.38474125,-0.14006102,-0.016983954,-0.307722,-0.0026653865,-0.3896888,0.33100253,0.23279625,0.23765148,-0.27975926
sky,-0.44308114,0.27446038,-0.21083036,0.5227219,0.06932736,-0.29471475,-0.29040837,-0.046081677,-0.016308077,-0.41806826,-0.39524618,-0.3776123,0.3759601,0.027442867,0.22336806,0.103471905,0.023146473,0.2976722,-0.2318609,0.050093908
sleep,-0.355465,0.3072389,-0.12633723,-0.14086564,0.1861749,-0.1840012,0.08464046,-0.18707697,-0.105644435,0.23483486,0.3428198,-0.14792146,0.0008388095,-0.2520791,-0.20291926,-0.24923044,0.27665892,0.23343998,0.38308594,-0.37604988
slow,-0.14723487,-0.1583119,-0.18352507,0.027983177,0.3401711,-0.44570243,-0.20692192,-0.30359542,0.12337424,0.24571325,0.23046283,-0.2603599,-0.023351947,-0.14428852,0.016879607,-0.21834749,-0.27743998,0.29308343,-0.19884893,-0.36878482
slowly,0.08223126,0.19062844,-0.16369241,-0.3176136,0.23721923,0.26228198,0.29335985,-0.31517476,0.23732792,-0.05534425,-0.21032858,-0.22689596,-0.26225096,-0.2990707,0.21588615,-0.34250504,0.023559645,0.09653635,0.26349327,-0.24115479
small,0.0053875777,-0.071107425,-0.3178674,0.12303855,0.2603553,-0.34435526,-0.14779033,-0.2377969,0.13466339,0.40674856,0.29086953,-0.26180357,0.01577038,-0.048066672,-0.022658616,0.1438998,-0.34821826,0.28998134,-0.34075937,-0.3243405
smart,0.3148978,0.0008516153,-0.3511215,0.25857055,-0.13145341,-7.157643e-05,-0.17428629,0.00603078,0.32479402,0.19510429,0.37598586,-0.34782735,-0.3192546,0.059523754,0.26757932,0.20654619,-0.14322406,0.30165097,0.16663899,0.04409346
smartphone,-0.086697534,0.2862449,-0.3185344,0.20781462,-0.2087781,0.2954159,0.018182334,0.042802162,-0.12969974,-0.34180048,-0.303312,-0.11867946,0.38656846,-0.24987063,0.2875497,0.3034242,0.17604421,-0.09706704,0.106515214,0.23038727
snow,-0.28920087,0.18493055,0.24689622,0.30721894,-0.21892807,-0.21417192,0.07708104,-0.13356018,0.36411217,-0.22951514,-0.1760735,-0.18602587,-0.114157245,-0.3607574,0.1670831,-0.23411907,-0.3621408,-0.26538825,-0.26567742,0.25112444
soft,-0.35510638,-0.16711141,-0.23046282,0.10787621,0.082925454,-0.2626392,-0.28232518,-0.02229573,0.0669934,0.06422302,0.30937263,0.13520813,-0.13277982,0.07810491,0.24077538,-0.2623616,-0.33119327,0.38317615,-0.12934503,-0.32125765
song,-0.21477768,0.07201747,-0.04304289,0.29811454,-0.2654009,-0.29917648,-0.25513,-0.20496286,-0.3488489,-0.3195703,-0.3008107,-0.23498388,0.29275045,0.2644306,0.005897605,0.08279514,0.33522943,0.25752342,-0.170529,-0.18001093
speak,-0.29520392,0.33743373,-0.09204598,-0.20433712,0.11513133,-0.1636166,-0.2833493,-0.08650946,-0.2842583,0.22515851,0.2625529,0.029100757,-0.11386976,-0.31060198,-0.2396642,-0.33881626,0.2766879,0.17433517,0.32043082,-0.2855461
stale,0.36683804,0.12786983,-0.3760876,0.17441918,-0.0061702803,-0.110634185,0.073265694,0.20550922,0.2704951,0.24133207,0.39448288,-0.44499418,-0.28196406,0.13602461,0.062644534,0.23502824,-0.22743109,0.26660514,-0.007446317,0.15119036
stand,-0.31534314,0.3202473,0.08882878,-0.062535636,-0.062590614,-0.24314025,0.094703145,-0.15277326,-0.13584135,0.27900094,0.4288863,0.0805786,-0.22564976,-0.35091266,-0.17417292,-0.319222,0.25757515,0.13250633,0.26066634,-0.28185531
star,-0.0763319,0.12321672,-0.18584077,0.44221073,-0.08566441,-0.40148243,-0.31443205,-0.2394743,-0.31456792,-0.3948877,-0.2618046,-0.07745833,0.3679102,0.26659292,-0.239936,0.20348151,-0.097823404,0.060236894,-0.14409728,-0.36398938
start,-0.35406536,0.3425791,-0.15690751,0.085490756,0.11992192,-0.10963718,-0.024925271,-0.2679789,-0.29598802,0.2025054,0.29165566,0.08814958,-0.16823146,-0.2216099,-0.23399076,-0.3047054,0.22686295,0.08543867,0.38496017,-0.33098987
stone,0.23549215,0.27927655,-0.27786818,0.16777502,-0.28214222,-0.2762381,-0.17938063,0.23252146,-0.0724147,0.06965317,-0.25278646,0.25581083,-0.22789738,-0.26667383,0.067210585,0.3256007,-0.24636778,0.29013187,-0.18308209,-0.1778099
stop,-0.20662533,0.34211212,-0.120605715,0.02042436,-0.036034573,-0.23558404,-0.21585295,-0.28773206,-0.15020014,0.15811849,0.3522418,0.31900823,-0.30397934,-0.25755736,-0.22930267,-0.3208586,0.2109579,0.017652784,0.31202805,-0.22928579
storm,-0.20345023,0.37822688,0.07771551,0.45730242,-0.16356808,-0.25615892,-0.108768135,0.14640218,0.20885436,-0.25663397,-0.30501202,0.06054681,-0.34283486,-0.4227027,0.2386603,0.13881578,-0.31582704,-0.09248699,-0.46067053,0.08284645
story,-0.26060203,0.4165305,-0.05494656,0.08573782,-0.10913178,-0.012115544,-0.3070156,0.023545885,-0.057787947,-0.4084579,-0.38393742,-0.19768125,0.30703637,0.37506536,-0.24291626,0.41336802,0.2615012,0.38364053,-0.06334087,-0.36665276
strange,-0.16739437,0.19631745,-0.31132296,-0.33070782,0.302847,0.21141663,0.32793596,-0.11027273,0.29087684,0.24202797,-0.09980553,-0.15999126,-0.23841107,-0.25274426,-0.06643094,-0.3174086,-0.33354616,0.12790269,0.056326684,0.14076959
street,-0.099337205,0.1491802,-0.15078054,0.26772547,-0.2760561,-0.21572062,-0.30440453,-0.26048884,-0.2841382,-0.2471909,-0.3213184,0.058414765,0.15222025,0.2076117,-0.07009654,0.22994375,0.23828305,0.3035266,-0.16095823,-0.27157775
strong,0.13874368,-0.44628304,-0.50243485,-0.27454364,0.11491222,-0.30829388,-0.13558082,-0.10409244,0.06980147,0.33297864,0.38261977,-0.26636353,-0.24248327,-0.055278312,-0.011008832,-0.11216392,-0.30060092,0.36518985,-0.097009435,-0.3849498
student,0.2302684,-0.082025334,0.3043216,0.2804746,-0.25332826,0.13629752,-0.14694513,0.14654762,-0.1467308,-0.23268345,-0.35971743,-0.09469521,0.28678074,0.28820747,0.19225046,0.2658012,0.08285019,0.31313354,0.35338235,-0.31653804
study,-0.37206998,0.3242629,-0.012500491,0.21374987,-0.1574645,-0.023463,0.05378651,-0.25834832,-0.14808589,0.2102901,0.35933363,0.23005821,-0.3017811,-0.15981501,-0.15274338,-0.30829507,0.24870194,0.042678457,0.32330325,-0.22946492
sun,-0.085890464,0.22501077,-0.34198558,0.31890795,-0.12310994,-0.13947028,-0.39616323,-0.017167104,-0.31454533,-0.28539616,-0.29272476,0.20915876,-0.066950984,0.1366261,-0.111587375,0.34858572,0.004375339,0.36089155,-0.3075448,-0.34709546
superior,0.25154012,-0.24934559,-0.20402229,-0.34644854,0.27427554,-0.27522907,0.013593317,-0.22328432,0.22459899,-0.10009982,0.07359725,-0.1325841,-0.010680603,0.28882074,-0.26710066,-0.24960098,-0.3104431,0.25478163,0.17102481,-0.31310657
survive,-0.29409143,0.15713964,0.3081741,-0.22289886,0.288103,-0.22684874,-0.27195153,-0.015248491,0.22959729,0.15350582,-0.29300237,-0.22841144,-0.32991102,-0.26654917,-0.2941609,-0.22494729,-0.323642,0.013966618,-0.09499495,0.27435562
swim,-0.27924085,0.33252263,-0.18520036,0.26889798,0.160537,-0.005607272,-0.13448822,-0.24448335,-0.25114757,0.09725979,0.32763264,0.32462525,-0.28835073,-0.057046168,-0.08184063,-0.3486378,0.21099702,-0.031439792,0.35767558,-0.1963472
table,-0.09153167,0.2926671,-0.2083549,0.37108538,-0.18702823,-0.23789547,-0.15254532,-0.37942976,-0.18977232,-0.32282448,-0.28454918,0.20790564,0.19772469,0.16691099,-0.1122562,0.350434,-0.01664543,0.2975348,0.15376037,-0.34262532
take,-0.17445818,0.39011562,-0.12645537,0.2266231,-0.14900704,-0.12870581,-0.20263621,-0.3444179,0.026548732,0.15015796,0.3320797,0.320439,-0.38054743,0.03306968,-0.0052946447,-0.36676863,0.24861269,0.011688649,0.33255172,-0.05711937
talk,-0.28259283,0.32983643,0.057451136,0.30080372,-0.008812442,0.22282489,-0.022326492,-0.15627329,-0.12265583,0.1927152,0.35007352,0.3617569,-0.344797,0.08757076,-0.040712755,-0.3609215,0.270798,0.027988182,0.36509258,-0.02434713
tall,0.09320435,-0.2700641,-0.24256474,-0.11149701,0.35015774,-0.3882047,0.0017071315,-0.38656262,0.10439149,0.29513907,0.28899726,-0.24752302,0.29781708,0.004591486,-0.14975235,-0.121254005,-0.26423362,0.14226519,-0.30238762,-0.32269356
teach,-0.18270949,0.3357894,-0.110405385,0.24597481,0.17972125,-0.085318424,-0.10561055,-0.20444722,-0.18767558,0.094504885,0.33448228,0.3884055,-0.36678204,0.21795334,0.17058328,-0.35016093,0.27928552,0.014337273,0.31885657,0.07531752
teacher,0.01636133,0.088075474,0.061239716,0.30744138,-0.35654828,-0.031711448,-0.3543412,-0.018990235,-0.24295653,-0.2185163,-0.4303308,0.134957,0.10911709,0.21084647,0.14277431,0.38874727,0.18854651,0.43667993,0.086460695,-0.45428032
tell,-0.18275629,0.42829686,0.026549833,0.17700398,-0.026065689,-0.019158771,0.020400882,-0.14292514,0.15119027,0.20547801,0.241307,0.31410673,-0.38666558,0.2916342,0.064509615,-0.44133165,0.31335428,0.11427631,0.32285628,0.15019561
them,-0.3144592,0.18169929,0.24820124,0.20778947,0.12174368,-0.123502776,-0.21382608,0.26677507,-0.0043546916,-0.2919707,-0.2155997,-0.17092662,0.2703968,-0.17144077,0.32820293,-0.1643754,-0.06806251,0.34533283,-0.21160406,-0.32620463
there,0.23396976,0.15426773,-0.0930102,0.24863167,0.2058891,0.06586368,0.30198073,-0.27974844,0.19626227,0.10494017,0.22744422,-0.354284,0.26509902,0.31395745,-0.25700295,-0.16541955,0.25993666,0.30915415,-0.1346805,-0.34834284
they,-0.22873369,0.16639863,0.25907937,0.24639311,0.28069437,-0.093316644,-0.19563723,0.16150905,0.075609006,-0.033909928,0.09811593,-0.35718668,0.26998398,-0.25131032,0.3144948,-0.25921664,-0.22426157,0.3084874,-0.24569215,-0.25655863
thick,0.10501451,-0.17777656,-0.44519582,-0.06385091,0.35120603,-0.3761898,0.0036583794,-0.10286799,-0.16507411,0.24249375,0.31766656,-0.11254424,0.04856532,0.20219027,-0.31095785,0.2967008,-0.36768454,0.15881604,-0.21530385,-0.35957184
thin,0.22049142,-0.35730815,-0.2942504,-0.39029697,0.17461102,-0.3405505,0.041397654,-0.0483711,-0.114161015,0.25739017,0.33108947,-0.036610514,0.1775002,0.29305658,-0.20112152,-0.17722434,-0.299555,-0.05246132,-0.2261059,-0.3724574
think,-0.20199762,0.2847596,0.15417287,0.154093,0.17944308,0.109695755,-0.025704622,0.050422907,-0.21782106,0.22906436,0.24485531,0.38992047,-0.38276598,0.23970585,0.025370685,-0.30403522,0.3385859,0.123929635,0.38610038,0.22309683
through,-0.114199564,0.36048436,-0.019440146,-0.3477251,-0.25718513,-0.16769527,-0.085944995,0.102873586,0.09163835,-0.32383418,-0.34108302,0.10448257,0.34242836,-0.08348706,0.25313702,-0.30556807,-0.36960256,-0.17572907,-0.019710278,-0.3160545
throughout,0.33966756,0.043552417,0.07182339,-0.16719328,0.31702775,-0.2887172,0.16206907,-0.19555216,0.27153212,0.09411089,0.21871603,-0.30408663,0.2057552,0.32298312,-0.12230174,0.02502317,-0.2364873,0.3649963,-0.08826777,-0.3597759
thunder,0.016788054,0.30372727,-0.22242792,0.30711567,0.1175647,0.25947642,-0.086625375,0.050698712,-0.07381833,-0.33313936,-0.34427923,-0.33104467,0.2835418,-0.2768271,0.28543323,0.26952374,0.231215,-0.2552141,-0.02302416,0.19081093
tired,0.2150226,-0.15934503,-0.30340496,-0.23515625,0.19888076,-0.35793692,0.048819534,-0.1879712,-0.0007179858,0.2517993,0.28205582,-0.1394582,0.17190611,0.21553892,-0.10637934,0.018356776,-0.34925437,0.19935802,-0.1919714,-0.291505
to,0.100437015,0.35004964,-0.35767406,-0.33049983,-0.31807357,-0.029113647,-0.19553745,-0.047269393,0.13841419,-0.14952238,-0.32653365,0.16505682,0.28825083,-0.12657031,0.29075515,-0.29201525,-0.34492525,0.16769053,-0.17849863,-0.30995506
transparent,0.2710066,-0.316647,-0.29479676,-0.31510413,0.14687301,-0.19141921,-0.024599958,-0.22883396,0.11658379,0.09627692,0.08912897,-0.06305204,-0.23066464,0.2606432,-0.2962609,-0.2724314,-0.38102233,0.2799647,0.23088217,-0.19343804
tree,-0.32008466,0.18631645,-0.3652978,0.42788145,-0.06900831,0.1128721,-0.33787423,-0.2698093,-0.33254394,-0.27480945,-0.43526846,0.0071802083,0.08778945,-0.17477688,0.22475904,0.21762268,0.1269939,0.23620965,0.05617251,-0.4372275
try,-0.22998007,0.34574166,-0.06281269,0.0134932045,0.2687388,-0.1478512,0.12822214,-0.13734156,-0.11257532,0.1740919,0.11269546,0.35362378,-0.34593016,0.29831678,0.1527629,-0.33681285,0.357707,0.14678895,0.2931044,0.22079313
turn,-0.13043547,0.4009787,0.10766975,-0.005571853,0.10178871,-0.07357739,0.19963752,0.15000427,-0.02141858,0.31507125,0.04104448,0.3187908,-0.36441487,0.36205116,-0.051399857,-0.380996,0.2613297,0.2377004,0.3125767,0.21045864
ugly,-0.39671612,0.27255678,-0.008000093,0.044967134,0.23135233,-0.31926376,-0.28309163,0.15592225,-0.1536538,0.030220043,0.32869318,0.31274104,0.044512887,-0.121448025,-0.13522151,-0.24086988,-0.29942507,0.19030418,-0.15147649,-0.34744805
under,-0.14901914,0.3177829,-0.019592037,-0.2301184,-0.3234453,-0.027561752,-0.03480564,0.16598468,0.04986759,-0.2876756,-0.35846823,0.2515504,0.3293225,-0.21413866,0.19015762,-0.30083883,-0.30655473,0.31388554,-0.017425632,-0.31433678
under ,-0.07588958,0.29343116,-0.15289392,0.25510326,-0.17488497,0.22594243,-0.1540279,0.3186437,-0.18679489,-0.33202985,-0.16007699,0.11030522,0.37384403,0.15620206,0.25458685,0.17358893,0.16773601,0.21341348,0.3869969,-0.26783717
up,-0.13681592,0.29662335,-0.24673003,-0.30894607,-0.16132303,0.077082306,0.1275989,0.22587445,-0.019292334,-0.19575971,-0.31336308,0.24751937,0.2936161,-0.24424314,0.29427454,-0.41267145,-0.3626903,-0.009260692,-0.20226827,-0.20835866
us,-0.34180355,0.25188246,0.29038003,0.14101012,0.20604125,-0.12270524,-0.0073504,0.2336845,0.12231402,-0.26425728,-0.21688117,-0.30481622,0.26396394,-0.27638736,0.27829075,-0.04308468,-0.13160841,0.27241045,-0.26798323,-0.25689432
use,-0.24163733,0.25202376,0.026745781,-0.09481724,0.32901856,-0.13357991,0.07731714,0.13011497,-0.25679395,0.23134016,-0.0034134488,0.37952712,-0.32251382,0.17289634,-0.061014805,-0.24990258,0.30883396,0.2168002,0.3580363,0.3137589
valley,-0.18416318,0.2982048,-0.30693704,0.22806212,0.085450746,0.36081043,-0.033639625,0.31854278,-0.15961613,-0.28601068,-0.255305,-0.048451163,0.28265437,-0.07747435,0.38779595,0.27438697,0.38026118,-0.18366872,0.05752088,0.12479968
village,0.09052052,0.19554271,0.122169875,0.13183203,-0.111611046,0.14038526,-0.16955516,0.24474572,-0.20938669,0.012742721,-0.37973708,0.039193265,0.29359445,0.21199727,0.28050283,0.34872302,0.06888779,0.37281877,0.3074703,-0.3886554
villain,-0.24753428,0.25332266,0.25074726,-0.24346043,0.18521261,0.23424882,-0.109805316,0.20086896,0.23729967,-0.23317416,-0.21142854,-0.20633262,0.28773463,0.2146222,0.03506585,0.2994809,0.23548609,0.20614758,0.22547153,-0.25122222
vivid,0.2933734,-0.2489742,-0.31035724,-0.29421276,-0.05395078,-0.20882307,-0.07655282,-0.11813971,-0.05485849,0.29931343,0.16514972,-0.08132988,-0.34759575,0.0054929764,-0.31724223,-0.26864767,-0.35940647,0.3772082,0.07164261,-0.1057886
void,-0.2168702,0.28552085,0.22219896,0.23159133,0.22921152,-0.14420798,0.0016344573,0.16053171,0.07799239,0.19606037,0.24808146,-0.21511206,0.2808911,-0.27596766,0.32094437,-0.19621034,-0.23954017,0.27387717,-0.29548156,-0.3383373
wait,-0.25884435,0.30712554,-0.03789573,-0.19906557,0.20754595,-0.25214916,0.30543667,-0.110412754,-0.14209098,0.28670394,-0.14709662,0.25444785,-0.30006996,0.29095945,-0.0320462,-0.3530517,0.2278924,0.23209468,0.32177675,0.15270211
walk,-0.10820004,0.35414457,-0.1097645,-0.15435435,0.2643921,-0.22631791,0.23783664,0.27355626,-0.13089441,0.29482892,-0.12031436,0.34183067,-0.32553452,0.18331414,-0.24811704,-0.3058325,0.17764802,0.31648356,0.16551866,0.13567501
want,-0.37916282,0.285003,-0.14302723,-0.1953282,0.33391064,-0.28659132,0.14660916,0.058372453,-0.30696055,0.24930686,-0.12690438,0.2953843,-0.2661935,-0.0023490319,-0.17953984,-0.21684125,0.06504962,0.25972465,0.37372997,0.11700015
warm,0.3062704,-0.15345062,-0.28515112,-0.061319593,0.19756162,-0.14587784,0.27711686,-0.36828673,0.09002084,0.3258318,0.36716902,-0.31673038,0.14900927,0.3140569,-0.3239672,-0.11680096,-0.07841458,0.25275868,-0.31130567,-0.42489922
watch,-0.1841503,0.3125346,-0.25447592,-0.25522608,0.2510735,-0.27955487,0.23057526,-0.14696133,-0.059245218,0.32903168,-0.22688799,0.28003028,-0.34070635,0.048328448,-0.25370002,-0.32863173,0.03593414,0.29638758,0.15355785,0.004406179
water,-0.20892878,0.3217481,-0.14151831,0.27449313,-0.11874716,-0.08097785,-0.27013567,-0.15689649,-0.31484315,-0.21974578,-0.26418048,0.21637355,-0.03178721,0.20680426,0.070422545,0.2764447,0.122431114,0.36316153,0.19201025,-0.34284657
we,-0.35145304,0.081720985,0.31418598,0.3160184,0.23349567,0.011226419,0.0053905193,0.09410421,0.05495617,0.015900679,0.14090914,-0.10349206,0.28413734,-0.3061299,0.28013676,-0.30788398,-0.24161497,0.2731134,-0.28763437,-0.31618387
weak,0.122377835,-0.05612972,-0.2582104,-0.11778187,0.055908687,-0.42570242,-0.13589925,-0.31332153,0.16065685,0.29111862,0.3357401,0.02842432,0.09746041,0.36966956,0.06767665,-0.2650244,-0.41409752,0.24609667,-0.3744349,-0.38729998
weekend,0.18691936,0.13363345,-0.29216328,0.3018591,0.26241463,0.23121361,0.15988338,0.17899942,0.052946042,-0.3245925,0.12516381,0.1165511,0.31066525,-0.39158309,0.33391508,0.2897882,0.07537098,-0.19173877,-0.22944969,0.16221976
wet,0.33726472,0.1945395,-0.20624374,-0.133843,0.23585735,-0.47267646,0.057621446,0.0698119,-0.1883839,0.42678428,0.45463926,-0.25227708,0.19669098,0.16393848,-0.22352554,-0.11049202,-0.42898273,0.17148927,-0.3013192,-0.14148484
white,0.2003278,0.0441447,-0.06882287,-0.003925052,0.15848465,-0.2940389,-0.0443146,-0.31223696,-0.14012225,0.28965792,0.34547055,-0.12554704,0.28577602,-0.0043732957,-0.20087057,-0.30598173,-0.18763033,0.3692635,-0.33837348,-0.3671051
wide,0.13047764,0.20787849,0.013152082,-0.019991634,0.08751316,-0.37428212,-0.22117573,-0.21126713,-0.17813838,0.32374218,0.35954487,-0.19407094,0.22026335,0.049494267,0.16763948,-0.29471946,-0.32854357,0.2391562,-0.3601426,-0.28368264
wind,-0.27916777,0.42241365,-0.16238783,0.40241185,-0.2347761,-0.23984364,-0.23173916,0.29368564,-0.12771754,-0.15888858,-0.4243985,0.31336576,-0.3501073,-0.0987375,0.34695816,0.33169344,-0.08909709,0.42000738,-0.06220935,-0.28157997
window,-0.21297942,0.20636189,-0.1183983,0.38370535,0.25973088,-0.15754883,-0.20253474,-0.06668618,-0.26524624,-0.08332986,-0.36005807,0.2744785,0.10265635,0.20071544,0.14880168,0.4174603,-0.072661825,0.35888582,0.20618358,-0.4496188
with,-0.124452874,0.3713915,-0.2833609,-0.31067508,-0.12843265,0.2256132,-0.056577682,0.16682968,-0.069560446,7.527039e-05,-0.23039089,0.33798188,0.29452443,-0.22350296,0.25637752,-0.23857062,-0.24720389,0.38106507,-0.12792623,-0.28740874
without,-0.23407267,0.2619559,-0.09664021,-0.059960194,-0.13060033,0.13350497,0.20614378,0.3099917,-0.17121397,-0.098080635,-0.34939322,0.28129554,0.27313253,-0.35541502,0.20630556,-0.33973792,-0.35258162,0.3102097,-0.048160464,-0.20588486
woman,-0.1960455,0.42758828,0.02641517,0.4819229,0.055732176,0.23726252,0.009290577,0.2243511,-0.35657102,-0.14079945,-0.13734217,0.19796541,-0.14790112,0.22571024,0.08935418,0.118139535,0.37374124,0.51495427,0.28425494,-0.4715829
wonderful,-0.16853769,0.20225729,-0.24782078,-0.364322,0.17650057,0.07354204,0.2789274,0.0141251795,0.19027957,0.2744329,-0.01393381,-0.3882889,-0.31670585,-0.32727033,-0.049867682,-0.26955026,-0.3459065,0.2803289,-0.048795797,-0.04779426
word,-0.2648265,0.024215795,0.0632736,0.35759482,0.13477781,-0.097371124,-0.15154085,0.24422225,-0.2992869,0.23346156,-0.34427303,0.30624172,-0.33100164,0.25171366,0.16573869,0.3059995,0.0007790635,0.30632287,0.29237986,-0.31919023
work,-0.21962984,0.29669434,-0.2811039,-0.19958468,0.27417505,-0.31622368,0.14124219,0.20120801,-0.21968968,0.25424057,-0.053790722,0.36616364,-0.2706167,-0.11942128,-0.31522635,-0.30602306,-0.06736335,0.3364697,0.073384374,-0.07037901
world,-0.112060204,0.13141437,0.19512145,0.2179165,0.3394176,0.1913251,0.1066961,0.27451795,-0.1073946,0.10166211,-0.38754216,0.026419409,0.052199997,0.40622786,0.16002992,0.41192988,-0.12048667,0.37847054,0.39202353,-0.43391708
worst,0.13394436,0.274628,0.022607371,-0.05293792,0.19897515,-0.30562285,0.09250846,-0.14075845,0.26584452,0.16050307,0.25360987,-0.37894708,0.13261825,0.33866915,-0.0097549865,0.1465652,-0.27253333,0.3734911,-0.30263522,-0.31551293
write,-0.3478722,0.3387266,-0.25989935,-0.10569323,0.4282598,-0.32470968,0.09001306,-0.15129068,-0.12617391,0.2796126,-0.109257266,0.22105093,-0.22671652,-0.16466913,-0.20777982,-0.18004128,-0.17366438,0.27422678,0.2775579,-0.12634037
you,-0.09426303,0.3001855,0.16139272,0.16597275,0.17246653,-0.27121547,-0.17195997,-0.0013574421,-0.108355306,0.33338845,0.33538464,-0.18732336,0.17064796,-0.13626437,0.30381367,-0.26100597,-0.28271988,0.29446387,-0.3155586,-0.32060426
young,-0.09708646,0.19627923,0.012056917,0.054777462,0.3217766,-0.38824105,-0.13863549,-0.030066703,-0.20690611,0.3918187,0.38422897,0.10292316,0.104159884,-0.17281339,-0.10550131,-0.33539674,-0.3901287,0.3288102,-0.26440305,-0.38218644
